elements: [Al, Ga, N]
E0: [0, 0, 0]
deltaSplineBins: 0.001
embeddings:
  0: {ndensity: 2, FS_parameters: [1, 1, 1, 0.5], npoti: FinnisSinclairShiftedScaled, rho_core_cutoff: 100000, drho_core_cutoff: 250}
  1: {ndensity: 2, FS_parameters: [1, 1, 1, 0.5], npoti: FinnisSinclairShiftedScaled, rho_core_cutoff: 100000, drho_core_cutoff: 250}
  2: {ndensity: 2, FS_parameters: [1, 1, 1, 0.5], npoti: FinnisSinclairShiftedScaled, rho_core_cutoff: 100000, drho_core_cutoff: 250}
bonds:
  [0, 0]: {nradmax: 6, lmax: 3, nradbasemax: 11, radbasename: SBessel, radparameters: [5.25], radcoefficients: [[[0.8801586218766918, -0.12506351226321513, 0.081038483884337612, 0.022921960506287312, -0.0039781197473949675, 0.0621767543224808, -0.061897175629473389, 0.045703174554090176, -0.010546587442413153, -0.0011418034731259564, 0.0055723598141623493], [0.85702854190413968, -0.0025661352583291374, 0.12417195774526561, -0.11848633848055024, -0.14723019389885214, 0.091897102339197262, 0.0022411777927741536, -0.065985797116603878, 0.096669413776829805, -0.021288698410801873, -0.003064247688522875], [0.99483411961733725, 0.0084426774275276235, -0.031205776387112041, -0.14980705410643394, -0.092005730383775935, 0.065348959934404552, -0.083866496696874543, -0.1399796981054415, 0.13048189385643091, -0.021247332026252504, -0.056756566265148266], [0.98181732648755848, -0.0069328062114774646, 0.0036984243435760236, -0.019818160382153817, -0.0096197834014312093, 0.027393786805240006, 0.0085992859555479896, -0.00097483701179726899, 0.047532879504455922, 0.031790177342425993, -0.023609388334017545]], [[-0.15057962231637168, 0.86959305305396328, -0.04917725917421404, 0.077484781430556551, 0.041138650103299271, -0.076016912869606712, 0.065966355622373463, -0.0023897322567965106, -0.025675541511524465, 0.012357447765922609, -0.0098007901650922873], [0.0042164872845844355, 0.92627311713210658, -0.037867820565677217, 0.092543661134268207, 0.069661423444897203, -0.03281576521858727, -0.10339103658524519, -0.080703159459914381, -0.015844840537862045, -0.089872801121611265, 0.032638343732928732], [-0.0073933145523090386, 0.97985480934995073, -0.029835569376409934, -0.026000328954717423, -0.015959712994025602, -0.0085275627366290657, 0.0041044043617917258, 0.019917873361367744, 0.031787169479714113, 0.034204904933269213, 0.026833982064410948], [-0.0048825479989181766, 0.98643118044144851, 0.0016591439940105068, 0.022486526150519243, 0.0045593780559778927, -0.017826798197387087, -0.017982720339103659, -0.019491047847503457, 0.00011400892731160266, 0.014470818592709059, -0.043037479760049568]], [[0.10961402160839759, -0.062233884467279794, 0.83634729199604951, -0.028183442954960509, 0.016020308207596059, 0.039950362810130799, 0.085339668451936718, 0.034367498081689832, -0.057291617223411931, -0.031557779959203988, 0.0035994724695843344], [0.018358904028302866, -0.012451333800239446, 0.95547473694885721, 0.032291222156435845, 0.050550440768986918, -0.070407298258538489, -0.023603205384618815, 0.089182771604258429, -0.023874715126835172, -0.009685356854630971, 0.10105026832555948], [-0.0013677485967845669, -0.016482353983779986, 0.98394929295703526, -0.0051425271161392215, 0.0018522388717314806, 0.037862247075769781, 0.06091025636001067, 0.030010149588926813, 0.0093109597211418482, -0.0089991359653434303, -0.048694745499741184], [-0.0025950882650884253, -0.0051196889459077357, 0.99340629995227092, -0.0040110269551063551, -0.0077789053154584458, -0.02270239666640388, -0.017654748320564573, 0.011980450825005547, 0.034863392884147401, 0.047874542099141701, 0.02985701699707044]], [[0.0062171412868007982, 0.091036161151723735, 0.01828795383000106, 0.8897137423336503, -0.0041732550680704892, 0.036713972794418334, -0.025581533706175993, 0.088944772742111669, 0.039875241253250281, -0.12863928838131344, 0.094862839077131944], [-0.0078591460938233181, 0.0018176398636608755, -0.008211541427017837, 0.95703183923080548, -0.034706335796157978, 0.0069841430253886764, 0.012382252503017981, -0.022201500580609431, -0.030274032304766659, 0.016509214125398707, 0.031929245558625211], [-0.0035375985363406632, -0.00028053891255178115, 0.0014080826283588525, 0.9947344032670945, -0.00071793514500629631, 0.006729891598299809, -0.010268735747598358, -0.019188559888643122, 0.0020619599691467619, 0.0051711043999825013, -0.0052207347439662344], [0, 0, 0, 1, 0, 0, 0, 0, 0, 0, 0]], [[-0.033906989576832781, 0.023859812814403216, 0.010001504891513691, -0.072574241410555115, 0.97763504887674213, 0.032685946662920455, 0.018063275316554446, 0.071016760066907297, 0.063336277623491283, -0.076098038329911008, 0.058289222338777445], [-0.00064246035940633431, -0.0017044567581142437, 0.0017601056505271398, -0.0053186435257312282, 0.98380346951902709, -0.0036182103587721203, 0.0046906654900105713, -0.010033923661112788, -0.025977005887493562, -0.043583526301578052, -0.032143569271899188], [0.0027631832502069747, 0.00040216627908534568, -0.0012077750817050847, -0.0018708107022979311, 0.99272959664672633, -0.0020672778732723504, 0.014923898293149922, 0.018873735334478659, 0.0073840654861480805, -0.010008853823831708, -0.029129801370064476], [0, 0, 0, 0, 1, 0, 0, 0, 0, 0, 0]], [[0.012408398975293193, 0.0158939455120128, 0.0058427544354875413, -0.010456566571309193, -0.00073765390748224886, 0.99448916329250681, -0.060433938115092949, -0.039274575037292946, 0.027911212150628004, 0.012728722047354351, -0.042730486961757991], [0.0026546087897827706, -0.00028420578847396997, -0.001542841303045013, 0.0011883003891065605, -0.0069706744082487782, 0.98700010051722475, -0.0016308175218352633, 0.00021828645364476177, -0.0073684814806358728, -0.0038415602250660191, -0.012492130934450606], [0, 0, 0, 0, 0, 1, 0, 0, 0, 0, 0], [0, 0, 0, 0, 0, 1, 0, 0, 0, 0, 0]]], prehc: 0, lambdahc: 0, rcut: 8, dcut: 0.01, rcut_in: 0, dcut_in: 0, inner_cutoff_type: distance}
  [0, 1]: {nradmax: 6, lmax: 2, nradbasemax: 8, radbasename: SBessel, radparameters: [5.25], radcoefficients: [[[0.98040821696992586, -0.20465887623201956, 0.23789244635122625, -0.15740841696569868, 0.16776095120992943, -0.085839909422549668, 0.036840053640113397, -0.0063048942083226049], [0.86964318938259755, -0.25097758965289196, 0.15117054428398, 0.037647853347908225, -0.29880718040420123, 0.26098414295011391, -0.16122480961740526, 0.046050214607787091], [1.059237868369638, 0.00012809597455892916, 0.10995995963454951, -0.02139313206391346, -0.19791924371514105, 0.18026790767528539, -0.19197074872870898, 0.06226550921040043]], [[-0.25460674694969382, 0.93326326698019502, -0.19472766027902527, 0.15073052571534459, 0.068265299180761602, -0.095073626250497256, 0.084067699287913356, -0.011070340300270504], [-0.053675732166434932, 0.92403779196466063, -0.056667382637193175, -0.041164016776276291, 0.059447181704316628, 0.017533777618071903, -0.11121438245307433, -0.066144295709700623], [0.015355688807924922, 0.99733730810464905, -0.0033733463273489567, -0.016924234067058289, -0.043964658501975958, 0.0075949157945324596, 0.0082261444742731706, -0.0027694340416459249]], [[0.044556114360017551, -0.065045851665067003, 0.92173270373956939, -0.14198484853364821, 0.0054579824172809738, 0.0634622240101229, 0.025394571603369016, 0.022773459183696613], [0.011416492830134566, -0.0023725298625115435, 0.97143502235064072, -0.00078325896238832409, 0.030713408004278513, -0.022285469302012074, -0.083218097686004938, -0.045235230799110807], [0, 0, 1, 0, 0, 0, 0, 0]], [[0.013916999595372345, 0.027585629823143033, 0.0007063522891198595, 0.99598403041996775, -0.013310540869699641, -0.029755549641970466, 0.014423355509732286, 0.076092160381333748], [-0.0010720487001224693, 5.1943441972360254e-05, 0.0029742899057569371, 0.99595977697221538, -0.01349228715587213, -0.012600839897358097, -0.014107026470843853, -0.035089926597837565], [0, 0, 0, 1, 0, 0, 0, 0]], [[-0.020899552916166891, 0.055288945001101437, 0.0047156268315996716, -0.030980662873324464, 0.98801303553852726, -0.030031351678097996, -0.047897043102681287, 0.095686812720624195], [0, 0, 0, 0, 1, 0, 0, 0], [0, 0, 0, 0, 1, 0, 0, 0]], [[-0.0020574923562432946, -0.022512878872832941, -0.0044202580239791154, 0.020421924192537962, -0.022392607927874369, 0.96029347552847533, 0.0056837560527095267, -0.00040816398505599127], [0, 0, 0, 0, 0, 1, 0, 0], [0, 0, 0, 0, 0, 1, 0, 0]]], prehc: 0, lambdahc: 0, rcut: 8, dcut: 0.01, rcut_in: 0, dcut_in: 0, inner_cutoff_type: distance}
  [0, 2]: {nradmax: 6, lmax: 2, nradbasemax: 8, radbasename: SBessel, radparameters: [5.25], radcoefficients: [[[0.89529464945092052, -0.17936072339507486, 0.23646285654907429, -0.12677001740494157, 0.094190351615744974, -0.021521298692264226, -0.0056234661559747103, 0.036294498057996734], [0.72435664835492586, 0.16149051321319194, -0.38297977765887636, 0.64506398330449877, -0.5617300945481265, 0.35136758810847157, -0.17268577582907652, 0.075139849157518077], [0.74415881018807617, -0.57082929808848659, 0.89125576804143813, -0.75095615959394724, 0.47506342159548709, -0.2200384142298398, 0.12669870271247749, 0.0022549136464752205]], [[0.056728893995953093, 0.9252534718480222, 0.048566989589473322, -0.068001865092888844, 0.20425550866477643, -0.072134138710401002, 0.025256588017120645, 0.059076591402257385], [-0.61204038092031987, 0.90116111615392369, -0.66944828977592574, 0.69222236227754486, -0.50982247105977385, 0.32671642373066473, -0.15556497264920235, 0.075179671065311454], [0.056802811261400694, 0.96688427788805187, -0.21661860964282839, 0.24709558811690358, -0.21745921864300688, 0.10778640849076929, 0.036655608336857715, 0.031871922413470838]], [[0.19893220532096392, -0.2362598702412837, 0.84863552199724879, -0.20047466331164346, 0.15182461228392249, 0.022621728157259244, 0.0083812508329288091, 0.043891648037750794], [0.082766397689868404, -0.0039131464748697366, 1.041773588688327, -0.1996537672063895, 0.18748295334314349, 0.078932090162589702, -0.081567659110246063, 0.077738211212842523], [0, 0, 1, 0, 0, 0, 0, 0]], [[0.081590070206588969, 0.045406181892856286, 0.057869200976052082, 0.93066738042280517, -0.19021939003638061, 0.026607128393591976, 0.029975855370917279, 0.026476746264438474], [0.030060798423873811, 0.020331220370852679, 0.0038540902340391528, 0.96675172554356315, 0.074360301906015072, 0.060384814649240365, -0.15057390381949459, 0.2706332604692781], [0, 0, 0, 1, 0, 0, 0, 0]], [[-0.061014749474622404, -0.015328043459948867, -0.07723932219633893, -0.024093143539942619, 1.0263023996781955, -0.1028201073613442, -0.011311149610056085, -0.099164555011884384], [0, 0, 0, 0, 1, 0, 0, 0], [0, 0, 0, 0, 1, 0, 0, 0]], [[0.018946066375814141, 0.0077998548961702354, 0.022200265053575727, 0.0586158550355559, -0.11416540620515252, 0.90400956749789441, -0.019015240411040184, -0.038486774519094123], [0, 0, 0, 0, 0, 1, 0, 0], [0, 0, 0, 0, 0, 1, 0, 0]]], prehc: 0, lambdahc: 0, rcut: 8, dcut: 0.01, rcut_in: 0, dcut_in: 0, inner_cutoff_type: distance}
  [1, 0]: {nradmax: 6, lmax: 2, nradbasemax: 8, radbasename: SBessel, radparameters: [5.25], radcoefficients: [[[0.98040821696992586, -0.20465887623201956, 0.23789244635122625, -0.15740841696569868, 0.16776095120992943, -0.085839909422549668, 0.036840053640113397, -0.0063048942083226049], [0.86964318938259755, -0.25097758965289196, 0.15117054428398, 0.037647853347908225, -0.29880718040420123, 0.26098414295011391, -0.16122480961740526, 0.046050214607787091], [1.059237868369638, 0.00012809597455892916, 0.10995995963454951, -0.02139313206391346, -0.19791924371514105, 0.18026790767528539, -0.19197074872870898, 0.06226550921040043]], [[-0.25460674694969382, 0.93326326698019502, -0.19472766027902527, 0.15073052571534459, 0.068265299180761602, -0.095073626250497256, 0.084067699287913356, -0.011070340300270504], [-0.053675732166434932, 0.92403779196466063, -0.056667382637193175, -0.041164016776276291, 0.059447181704316628, 0.017533777618071903, -0.11121438245307433, -0.066144295709700623], [0.015355688807924922, 0.99733730810464905, -0.0033733463273489567, -0.016924234067058289, -0.043964658501975958, 0.0075949157945324596, 0.0082261444742731706, -0.0027694340416459249]], [[0.044556114360017551, -0.065045851665067003, 0.92173270373956939, -0.14198484853364821, 0.0054579824172809738, 0.0634622240101229, 0.025394571603369016, 0.022773459183696613], [0.011416492830134566, -0.0023725298625115435, 0.97143502235064072, -0.00078325896238832409, 0.030713408004278513, -0.022285469302012074, -0.083218097686004938, -0.045235230799110807], [0, 0, 1, 0, 0, 0, 0, 0]], [[0.013916999595372345, 0.027585629823143033, 0.0007063522891198595, 0.99598403041996775, -0.013310540869699641, -0.029755549641970466, 0.014423355509732286, 0.076092160381333748], [-0.0010720487001224693, 5.1943441972360254e-05, 0.0029742899057569371, 0.99595977697221538, -0.01349228715587213, -0.012600839897358097, -0.014107026470843853, -0.035089926597837565], [0, 0, 0, 1, 0, 0, 0, 0]], [[-0.020899552916166891, 0.055288945001101437, 0.0047156268315996716, -0.030980662873324464, 0.98801303553852726, -0.030031351678097996, -0.047897043102681287, 0.095686812720624195], [0, 0, 0, 0, 1, 0, 0, 0], [0, 0, 0, 0, 1, 0, 0, 0]], [[-0.0020574923562432946, -0.022512878872832941, -0.0044202580239791154, 0.020421924192537962, -0.022392607927874369, 0.96029347552847533, 0.0056837560527095267, -0.00040816398505599127], [0, 0, 0, 0, 0, 1, 0, 0], [0, 0, 0, 0, 0, 1, 0, 0]]], prehc: 0, lambdahc: 0, rcut: 8, dcut: 0.01, rcut_in: 0, dcut_in: 0, inner_cutoff_type: distance}
  [1, 1]: {nradmax: 6, lmax: 3, nradbasemax: 11, radbasename: SBessel, radparameters: [5.25], radcoefficients: [[[0.98564078790813692, -0.10600499978419788, 0.050410847907474847, 0.012965902261021395, -0.0059357325848273653, 0.059311838277060241, -0.073360617666480721, 0.053218088264796265, -0.024710663615892334, 0.0094685857191360405, -0.0010197918273000413], [0.85659286630574794, -0.16024796322734822, 0.12534586327616026, 0.063772645467612091, -0.23598162136142051, 0.020369118319072569, 0.087720514395409982, -0.16610813743241098, 0.095239997754993644, -0.036843407001819206, -0.0024223366914167856], [1.0709364755123332, 0.032557134159823711, -0.019453224070008369, -0.027384178412975996, -0.063478393644739853, -0.027651217363645193, -0.024276955601218078, -0.084507958303541075, 0.036230608493963284, 0.038173815212885001, -0.063472938017780839], [0.99079440600705015, -0.0025463787806566376, -0.0044181267243065259, -0.016226157587677911, 0.011705381107328416, 0.035715021956959393, 0.0095053203897156047, 0.020456780746241483, 0.068446242206935931, 0.042554338415603014, -0.018484735646107073]], [[-0.14726398419478101, 0.8389275698883697, -0.08444598820545475, 0.095777674788877207, 0.061214889532235944, -0.062485852856420256, 0.068057978104162836, 0.027228896859396466, -0.028124887175106184, 0.018200857019756593, -0.0011241190181046916], [-0.0040773125467000806, 0.98466300096161041, 0.010627754577880892, 0.03318998984123149, 2.0694232511533927e-05, -0.046683836044647986, -0.081035691031861534, -0.07411401539107923, -0.034328770934646195, -0.0020727291451415148, -0.0093158388202237881], [0.0031890506142463822, 0.99271341246758826, -0.01824312619975639, -0.0060317941185665282, 0.017717588525066105, 0.009202563812564275, -0.039324552448771741, -0.03531648978531042, 0.039868852819553907, 0.029435188801512181, -0.045017488737319117], [-0.002476448526351599, 0.99173460712548411, -0.0021392043155983062, 0.0087785582870929038, -0.00053267716011099354, -0.0096910448656823498, -0.0024006376065234822, -0.0085275607831518229, -0.016000859507022045, -0.00055872402206479251, 0.00020607102253537233]], [[0.06283252797797087, -0.066018366650613017, 0.87651612597684414, -0.00097599925662802305, 0.026296518942162683, -0.025741568620915711, 0.035419210243393617, 0.075758772036861766, -0.064441662668382166, 0.0091521725354172141, 0.010369554166972425], [0.0083070017107968706, -0.0052762464182942578, 0.96992380434789582, -0.0054845582553530621, 0.021831205036613694, -0.015683569093605507, -0.019411437721549935, 0.013777812955329146, -0.029209685892184537, -0.035698256409352189, 0.026637025849225494], [0.003682350032315524, -0.0024740997991572959, 0.99110513023523383, -0.0010070853333430669, 0.0053274338944949732, -0.018522864286294932, -0.050495544246540756, -0.042906556651105522, -0.030049404554627381, -0.024625674726596054, 0.032424168519378301], [0.0024078365182012233, -0.00075808313626432708, 0.99899117835689055, 0.0042332800483254173, -0.005250991601180084, -0.015824647248752845, -0.002751847910205372, -0.0014840480541979555, -0.019916656440614067, -0.0081645862678045369, 0.011917960726988079]], [[0.0071451048136024053, 0.021890144138478659, 0.0017891131655758405, 0.95416753327446746, -0.056452266118578974, -0.022630616058781167, 0.024809993824032456, 0.02654871655130233, -0.012940011413672965, -0.052685462462757585, 0.030204007161121885], [-0.0047165792992343945, 0.004775563058150272, -0.00069045679281806564, 0.97554561699684272, -0.0053865634405852129, 0.026290386420348838, -0.0014265813962457989, -0.031659098123391356, -0.032082726763334353, -0.03763686696464226, 0.025417624773776869], [-0.00035134709979488732, 0.0013409766318955481, -0.001078002038000028, 0.99480722259760046, -0.00059357087418454091, 0.004908565066201462, 0.00010002371968268297, -0.0072219003979593311, -0.007551549820640561, -0.0027949487913629281, 0.0049051488969520845], [0, 0, 0, 1, 0, 0, 0, 0, 0, 0, 0]], [[0.039094190755778087, 0.085089578848240435, 0.034229425734452951, -0.0071743899652305281, 1.0033599412175123, -0.020205651206276976, -0.015306626870600814, 0.019738380106135801, 0.0097674390617298896, -0.065590437277938007, 0.025442311582553476], [-0.00058926549034765479, -0.0027036119899619057, 0.0011830765484806391, 1.4874484393506245e-05, 0.99188421729034082, -0.0016548102202116931, 0.0003762651706654788, -0.018553050502192352, -0.019421084134277157, 0.0036935802338888633, 0.013382173345566298], [0.0014203971946163559, 0.00047944155610461705, -0.00052591079305457067, -0.0013121287971916893, 0.99478865491253166, -0.013639704410612099, -0.017184535858289787, -0.0045984486584135136, 0.0018872815843086264, -0.0074368547119478788, -0.0060061541214055294], [0, 0, 0, 0, 1, 0, 0, 0, 0, 0, 0]], [[-0.0038059694036102734, -0.028584956488674828, -0.0086737644313356638, 0.0062984582149498347, -0.0408687466783558, 0.96081833672182571, 0.0054985595493867627, -0.0055927445331781407, -0.008152781990946982, 0.016270254063298267, -0.025212186567063029], [0.0016559777701455219, 0.0026497656520779404, 0.0015858498456317628, 0.0020552387451160644, -0.0025371017255619971, 0.99212099847411928, 0.0031539720632219083, 0.0096122240406564998, 0.00048806929173895715, -0.0019701147764718445, -0.0089131527359934334], [0, 0, 0, 0, 0, 1, 0, 0, 0, 0, 0], [0, 0, 0, 0, 0, 1, 0, 0, 0, 0, 0]]], prehc: 0, lambdahc: 0, rcut: 8, dcut: 0.01, rcut_in: 0, dcut_in: 0, inner_cutoff_type: distance}
  [1, 2]: {nradmax: 6, lmax: 2, nradbasemax: 8, radbasename: SBessel, radparameters: [5.25], radcoefficients: [[[1.0264134113623498, -0.2431168125359035, 0.27776713057871438, -0.19123468272955715, 0.13728529468661099, -0.025975246411791268, -0.0070502731654947248, 0.044276016766359227], [0.64499976993319086, 0.2214007710357451, -0.48501407600812563, 0.72102696061860005, -0.59894455425691673, 0.36404051061126069, -0.16712674041834458, 0.068484394143545138], [0.79727933864590617, -0.74931083514813668, 1.0300801244005251, -0.82719155032391123, 0.49402281253384484, -0.23982099676460031, 0.11558649235977826, -0.0029753128188509614]], [[0.011145540215593856, 0.9318554339734143, -0.041564186109932191, 0.012291064955931366, 0.17036149921499108, -0.066272338466671063, 0.04872461432727189, 0.041026266531371161], [-0.68047857705418047, 0.90784556209238543, -0.67759588203605281, 0.67152917773665077, -0.45133917048448807, 0.26527637553684802, -0.11175142490049085, 0.043357661420146944], [-0.037786791954300562, 1.0195971957478633, -0.17762076412690883, 0.32325393941866715, -0.26270996805686803, 0.023114922343054182, 0.10611048235177346, 0.00024657004911362245]], [[0.1007602991786461, -0.097452072482692803, 0.85539613974266604, -0.35244548765261202, 0.32939528925842515, -0.088501529581392929, 0.044411569115199681, 0.028386625922494108], [0.1948184362749309, -0.10134452830262972, 1.0518354718705698, -0.20850870635866428, 0.2833636389339137, 0.056880369742706237, -0.1043860985620058, 0.086464866834788032], [0, 0, 1, 0, 0, 0, 0, 0]], [[-0.040913006898168985, -0.047866052255314928, 0.025088159775934017, 0.98940897226841573, -0.24983640050207512, 0.14622124863197083, 0.0078213155013572878, -0.006904079117822399], [-0.039236390327274009, 0.00074965592296118491, -0.022122237820206586, 0.95904720726373949, -0.020641465011147997, 0.081726176695168712, -0.10383038435452199, 0.22984680093191445], [0, 0, 0, 1, 0, 0, 0, 0]], [[-0.084423144696152974, -0.030739532630796998, -0.049774013546655067, -0.11013831702787176, 0.98625529935469081, -0.084854836280211551, -0.023187237742607461, -0.07093362089470262], [0, 0, 0, 0, 1, 0, 0, 0], [0, 0, 0, 0, 1, 0, 0, 0]], [[0.050967118203872355, 0.028555938188462929, 0.050711617945579796, -0.023749675077916456, -0.078560527091946608, 0.96343034546395279, -0.20257972820502906, -0.067696127333142106], [0, 0, 0, 0, 0, 1, 0, 0], [0, 0, 0, 0, 0, 1, 0, 0]]], prehc: 0, lambdahc: 0, rcut: 8, dcut: 0.01, rcut_in: 0, dcut_in: 0, inner_cutoff_type: distance}
  [2, 0]: {nradmax: 6, lmax: 2, nradbasemax: 8, radbasename: SBessel, radparameters: [5.25], radcoefficients: [[[0.89529464945092052, -0.17936072339507486, 0.23646285654907429, -0.12677001740494157, 0.094190351615744974, -0.021521298692264226, -0.0056234661559747103, 0.036294498057996734], [0.72435664835492586, 0.16149051321319194, -0.38297977765887636, 0.64506398330449877, -0.5617300945481265, 0.35136758810847157, -0.17268577582907652, 0.075139849157518077], [0.74415881018807617, -0.57082929808848659, 0.89125576804143813, -0.75095615959394724, 0.47506342159548709, -0.2200384142298398, 0.12669870271247749, 0.0022549136464752205]], [[0.056728893995953093, 0.9252534718480222, 0.048566989589473322, -0.068001865092888844, 0.20425550866477643, -0.072134138710401002, 0.025256588017120645, 0.059076591402257385], [-0.61204038092031987, 0.90116111615392369, -0.66944828977592574, 0.69222236227754486, -0.50982247105977385, 0.32671642373066473, -0.15556497264920235, 0.075179671065311454], [0.056802811261400694, 0.96688427788805187, -0.21661860964282839, 0.24709558811690358, -0.21745921864300688, 0.10778640849076929, 0.036655608336857715, 0.031871922413470838]], [[0.19893220532096392, -0.2362598702412837, 0.84863552199724879, -0.20047466331164346, 0.15182461228392249, 0.022621728157259244, 0.0083812508329288091, 0.043891648037750794], [0.082766397689868404, -0.0039131464748697366, 1.041773588688327, -0.1996537672063895, 0.18748295334314349, 0.078932090162589702, -0.081567659110246063, 0.077738211212842523], [0, 0, 1, 0, 0, 0, 0, 0]], [[0.081590070206588969, 0.045406181892856286, 0.057869200976052082, 0.93066738042280517, -0.19021939003638061, 0.026607128393591976, 0.029975855370917279, 0.026476746264438474], [0.030060798423873811, 0.020331220370852679, 0.0038540902340391528, 0.96675172554356315, 0.074360301906015072, 0.060384814649240365, -0.15057390381949459, 0.2706332604692781], [0, 0, 0, 1, 0, 0, 0, 0]], [[-0.061014749474622404, -0.015328043459948867, -0.07723932219633893, -0.024093143539942619, 1.0263023996781955, -0.1028201073613442, -0.011311149610056085, -0.099164555011884384], [0, 0, 0, 0, 1, 0, 0, 0], [0, 0, 0, 0, 1, 0, 0, 0]], [[0.018946066375814141, 0.0077998548961702354, 0.022200265053575727, 0.0586158550355559, -0.11416540620515252, 0.90400956749789441, -0.019015240411040184, -0.038486774519094123], [0, 0, 0, 0, 0, 1, 0, 0], [0, 0, 0, 0, 0, 1, 0, 0]]], prehc: 0, lambdahc: 0, rcut: 8, dcut: 0.01, rcut_in: 0, dcut_in: 0, inner_cutoff_type: distance}
  [2, 1]: {nradmax: 6, lmax: 2, nradbasemax: 8, radbasename: SBessel, radparameters: [5.25], radcoefficients: [[[1.0264134113623498, -0.2431168125359035, 0.27776713057871438, -0.19123468272955715, 0.13728529468661099, -0.025975246411791268, -0.0070502731654947248, 0.044276016766359227], [0.64499976993319086, 0.2214007710357451, -0.48501407600812563, 0.72102696061860005, -0.59894455425691673, 0.36404051061126069, -0.16712674041834458, 0.068484394143545138], [0.79727933864590617, -0.74931083514813668, 1.0300801244005251, -0.82719155032391123, 0.49402281253384484, -0.23982099676460031, 0.11558649235977826, -0.0029753128188509614]], [[0.011145540215593856, 0.9318554339734143, -0.041564186109932191, 0.012291064955931366, 0.17036149921499108, -0.066272338466671063, 0.04872461432727189, 0.041026266531371161], [-0.68047857705418047, 0.90784556209238543, -0.67759588203605281, 0.67152917773665077, -0.45133917048448807, 0.26527637553684802, -0.11175142490049085, 0.043357661420146944], [-0.037786791954300562, 1.0195971957478633, -0.17762076412690883, 0.32325393941866715, -0.26270996805686803, 0.023114922343054182, 0.10611048235177346, 0.00024657004911362245]], [[0.1007602991786461, -0.097452072482692803, 0.85539613974266604, -0.35244548765261202, 0.32939528925842515, -0.088501529581392929, 0.044411569115199681, 0.028386625922494108], [0.1948184362749309, -0.10134452830262972, 1.0518354718705698, -0.20850870635866428, 0.2833636389339137, 0.056880369742706237, -0.1043860985620058, 0.086464866834788032], [0, 0, 1, 0, 0, 0, 0, 0]], [[-0.040913006898168985, -0.047866052255314928, 0.025088159775934017, 0.98940897226841573, -0.24983640050207512, 0.14622124863197083, 0.0078213155013572878, -0.006904079117822399], [-0.039236390327274009, 0.00074965592296118491, -0.022122237820206586, 0.95904720726373949, -0.020641465011147997, 0.081726176695168712, -0.10383038435452199, 0.22984680093191445], [0, 0, 0, 1, 0, 0, 0, 0]], [[-0.084423144696152974, -0.030739532630796998, -0.049774013546655067, -0.11013831702787176, 0.98625529935469081, -0.084854836280211551, -0.023187237742607461, -0.07093362089470262], [0, 0, 0, 0, 1, 0, 0, 0], [0, 0, 0, 0, 1, 0, 0, 0]], [[0.050967118203872355, 0.028555938188462929, 0.050711617945579796, -0.023749675077916456, -0.078560527091946608, 0.96343034546395279, -0.20257972820502906, -0.067696127333142106], [0, 0, 0, 0, 0, 1, 0, 0], [0, 0, 0, 0, 0, 1, 0, 0]]], prehc: 0, lambdahc: 0, rcut: 8, dcut: 0.01, rcut_in: 0, dcut_in: 0, inner_cutoff_type: distance}
  [2, 2]: {nradmax: 6, lmax: 3, nradbasemax: 11, radbasename: SBessel, radparameters: [5.25], radcoefficients: [[[0.974382041003099, -0.043012858182826678, 0.10822140445409446, 0.022217866844225095, -0.014787018217092513, 0.11464732617162396, -0.070983052954044917, 0.059911671461954731, 0.0013399793813998636, 0.008287089188548891, -0.0016029248122503971], [1.109468671407229, -0.16586450195185909, 0.044753778798643437, 0.2090805153893894, -0.20350508861288535, -0.0084888574529769587, 0.10930900963674456, -0.074954861921364177, 0.0562972308373237, -0.015939671651589847, 0.015203425639809892], [0.84919133009827608, 0.051543298473943122, 0.047878569493087351, -0.087975810768202253, 0.095892235207997889, -0.062700685358039285, -0.062784779304817184, 0.29986699337069522, -0.16487501265099788, -0.1906307620112983, 0.30967686385357973], [0.9886009304721165, 0.01000336282931139, 0.040357821151862656, -0.0084284845242095351, -0.067550011624518222, 0.018455013878977043, 0.11495918775233699, -0.0054619303138365213, -0.11946065573934779, 0.046570640059709761, 0.033593756532709851]], [[0.023162279633298352, 0.99152828996722842, -0.040413086907126472, 0.075024942958476462, 0.1519814082793807, 0.078472922505231607, 0.014532347391711078, -0.00725312683034609, 0.078308959384063029, -0.011369473386472474, 0.029936019107205458], [-0.072183774154975025, 0.93826537367126261, 0.077109587992602993, 0.061719705897329877, -0.05893459002701041, 0.0307497772296558, 0.10044990000652843, 0.04826949251264296, 0.052989829288973625, -0.051730636836806086, 0.01834503224479524], [-0.024758269546375972, 0.97094499103312848, -0.031614552008237408, 0.0057882094120774944, 0.10760991947187129, 0.11858033772694612, 0.027210662369979995, 0.024071046542591984, 0.091199152606648959, 0.053696224102787203, -0.10368363009831504], [-0.00080891939072753861, 0.98821674382456026, -0.025242200851994641, -0.051880150765277286, -0.062958350083145806, 0.0045825285848970516, 0.057143388793057401, 0.018839031565103553, 0.013810070816514102, -0.00091338510983243618, 0.0421925989591731]], [[-0.070792288389288541, -0.10417836286695571, 0.78922898518785445, -0.13161775492674813, 0.15560201610549559, 0.033101642351026521, -0.11397016729517258, 0.11164407389015632, -0.013854096387960476, -0.069626129962900532, 0.090403940747460207], [0.012891808352319926, 0.01798155098181773, 0.94884106232509613, -0.030051232162362957, 0.040181182004182081, -0.022220844295524348, 0.054915381585295249, 0.094886656506440847, -0.12578699107730398, 0.027204596750484512, 0.03553690147300527], [-0.0027439292424369138, 0.017446818434982421, 0.9822134133166005, -0.039517515876142731, 0.0022840179814758812, -0.019168127256412513, -0.013971220321837886, 0.0098983514053355617, -0.077424068744495589, -0.004432454377525652, 0.071210673418147644], [-0.0053491798796701734, 0.021737838710406361, 0.9869429109484944, -0.02595033207148939, 0.029666695274179158, -0.09378819974643085, -0.18636713014365494, 0.018837246961382198, 0.022826668310259753, -0.14443421514560414, 0.052434880366952798]], [[0.11748763960449603, 0.09267924721643328, -0.082019950854666526, 0.87232637031413807, -0.057533336536022647, -0.056148441385894317, 0.0045675543963203079, 0.10921885559424283, -0.018939073520138537, -0.074818137158659898, 0.10768906417311779], [0.01932298288048517, 0.0074510056694534902, -0.048540004962339164, 0.93964565968206526, 0.031598827847310905, -0.026730463273892821, -0.19901068881707079, 0.0098040707654533342, 0.12232135155027556, -0.1844853734733625, 0.14434347119655064], [0.0052382101524872564, 0.0019257290462754404, -0.0068212138098055312, 0.98636494231833294, -0.0066041938277912231, -0.0037553944395895475, -0.04731095963091924, -0.06788461652485453, -0.024911690172182678, -0.037477724410632213, -0.023886939730704014], [0, 0, 0, 1, 0, 0, 0, 0, 0, 0, 0]], [[0.058925531603943336, 0.069078058331125625, 0.0039397442389951676, 0.034550925286732675, 1.0284670571283454, -0.047574632778225587, 0.13153823525536684, 0.21407888537056949, 0.018163099504696072, 0.033130011865533861, 0.058217874546285027], [-0.0087696675320132651, -0.0020738732006707495, 0.0016927025322429365, -0.014063087639864285, 0.98583879108578731, -0.003801891525244773, 0.010628955048092956, 0.093766000772580141, 0.14236900062487992, 0.0051879018898695235, -0.020304818519218365], [0.003222107472775803, 0.00080065577167136228, 0.0032222981411345313, 0.00046768319621764054, 0.97535004903405542, -0.028628648623216742, 0.00096960245894233267, -0.0002360174987856274, -0.022931775083575159, -0.0090418134568707384, 0.021366959232795198], [0, 0, 0, 0, 1, 0, 0, 0, 0, 0, 0]], [[-0.06073705773021585, -0.071872887498149518, -0.0080965863727611269, -0.050857109068608713, -0.060751427938234223, 1.0473515608395703, -0.091495641296875263, -0.15505693599791462, 0.11018185671456575, -0.023922567977593338, -0.077129983260893778], [0.0022455799027964749, 0.00085330630440707243, -0.0017048593300669492, 0.0041594241343907296, 0.0049152312993139859, 0.99520976383593529, 0.00087183850336783613, -0.0073066254792221192, -0.049414017728297524, -0.039838604068639365, -0.016885153806971285], [0, 0, 0, 0, 0, 1, 0, 0, 0, 0, 0], [0, 0, 0, 0, 0, 1, 0, 0, 0, 0, 0]]], prehc: 0, lambdahc: 0, rcut: 8, dcut: 0.01, rcut_in: 0, dcut_in: 0, inner_cutoff_type: distance}
functions:
  0:
    - {mu0: 0, rank: 1, ndensity: 2, num_ms_combs: 1, mus: [0], ns: [1], ls: [0], ms_combs: [0], ctildes: [0.046908912042249035, -0.0064566692479345695]}
    - {mu0: 0, rank: 1, ndensity: 2, num_ms_combs: 1, mus: [0], ns: [2], ls: [0], ms_combs: [0], ctildes: [-0.067043806871464287, -0.037472258659344629]}
    - {mu0: 0, rank: 1, ndensity: 2, num_ms_combs: 1, mus: [0], ns: [3], ls: [0], ms_combs: [0], ctildes: [-0.029466810044977896, -0.017149657073133689]}
    - {mu0: 0, rank: 1, ndensity: 2, num_ms_combs: 1, mus: [0], ns: [4], ls: [0], ms_combs: [0], ctildes: [0.054007405116415906, -0.014314247112092877]}
    - {mu0: 0, rank: 1, ndensity: 2, num_ms_combs: 1, mus: [0], ns: [5], ls: [0], ms_combs: [0], ctildes: [-0.070714486131948889, -0.024865071604314185]}
    - {mu0: 0, rank: 1, ndensity: 2, num_ms_combs: 1, mus: [0], ns: [6], ls: [0], ms_combs: [0], ctildes: [-0.02679962269960694, 0.017930249940737806]}
    - {mu0: 0, rank: 1, ndensity: 2, num_ms_combs: 1, mus: [0], ns: [7], ls: [0], ms_combs: [0], ctildes: [0.076932333857164054, -0.013823173744253389]}
    - {mu0: 0, rank: 1, ndensity: 2, num_ms_combs: 1, mus: [0], ns: [8], ls: [0], ms_combs: [0], ctildes: [-0.040945733304605277, -0.022221314424795632]}
    - {mu0: 0, rank: 1, ndensity: 2, num_ms_combs: 1, mus: [0], ns: [9], ls: [0], ms_combs: [0], ctildes: [-0.050810302197521306, 0.043694455399303167]}
    - {mu0: 0, rank: 1, ndensity: 2, num_ms_combs: 1, mus: [0], ns: [10], ls: [0], ms_combs: [0], ctildes: [0.093333114723779115, -0.0013642177479469141]}
    - {mu0: 0, rank: 1, ndensity: 2, num_ms_combs: 1, mus: [0], ns: [11], ls: [0], ms_combs: [0], ctildes: [-0.062334392359458812, 0.0087437685517804484]}
    - {mu0: 0, rank: 1, ndensity: 2, num_ms_combs: 1, mus: [1], ns: [1], ls: [0], ms_combs: [0], ctildes: [0.028291376754992627, -0.038814536515855487]}
    - {mu0: 0, rank: 1, ndensity: 2, num_ms_combs: 1, mus: [1], ns: [2], ls: [0], ms_combs: [0], ctildes: [-0.089685967679341991, -0.058775302065928903]}
    - {mu0: 0, rank: 1, ndensity: 2, num_ms_combs: 1, mus: [1], ns: [3], ls: [0], ms_combs: [0], ctildes: [0.011399817162554756, 0.0051865202690635527]}
    - {mu0: 0, rank: 1, ndensity: 2, num_ms_combs: 1, mus: [1], ns: [4], ls: [0], ms_combs: [0], ctildes: [0.044096933173279666, -0.00053841675981577757]}
    - {mu0: 0, rank: 1, ndensity: 2, num_ms_combs: 1, mus: [1], ns: [5], ls: [0], ms_combs: [0], ctildes: [-0.12768937352256279, -0.02241561455981186]}
    - {mu0: 0, rank: 1, ndensity: 2, num_ms_combs: 1, mus: [1], ns: [6], ls: [0], ms_combs: [0], ctildes: [-0.043003533832558394, 0.019094514417696058]}
    - {mu0: 0, rank: 1, ndensity: 2, num_ms_combs: 1, mus: [1], ns: [7], ls: [0], ms_combs: [0], ctildes: [0.091309949799759163, -0.061332651056622847]}
    - {mu0: 0, rank: 1, ndensity: 2, num_ms_combs: 1, mus: [1], ns: [8], ls: [0], ms_combs: [0], ctildes: [-0.0095937481634418478, 0.041028557140091487]}
    - {mu0: 0, rank: 1, ndensity: 2, num_ms_combs: 1, mus: [2], ns: [1], ls: [0], ms_combs: [0], ctildes: [-0.07141248670571558, -0.043908344118495875]}
    - {mu0: 0, rank: 1, ndensity: 2, num_ms_combs: 1, mus: [2], ns: [2], ls: [0], ms_combs: [0], ctildes: [0.03171283470401727, -0.026453364286601982]}
    - {mu0: 0, rank: 1, ndensity: 2, num_ms_combs: 1, mus: [2], ns: [3], ls: [0], ms_combs: [0], ctildes: [-0.15932979378120077, -0.1167590545690993]}
    - {mu0: 0, rank: 1, ndensity: 2, num_ms_combs: 1, mus: [2], ns: [4], ls: [0], ms_combs: [0], ctildes: [-0.041346121133635276, -0.031902425482818124]}
    - {mu0: 0, rank: 1, ndensity: 2, num_ms_combs: 1, mus: [2], ns: [5], ls: [0], ms_combs: [0], ctildes: [0.016477146091613513, 0.060551706366415825]}
    - {mu0: 0, rank: 1, ndensity: 2, num_ms_combs: 1, mus: [2], ns: [6], ls: [0], ms_combs: [0], ctildes: [-0.14400969490879748, -0.17430013524777416]}
    - {mu0: 0, rank: 1, ndensity: 2, num_ms_combs: 1, mus: [2], ns: [7], ls: [0], ms_combs: [0], ctildes: [0.13046050202102108, -0.023778170745018375]}
    - {mu0: 0, rank: 1, ndensity: 2, num_ms_combs: 1, mus: [2], ns: [8], ls: [0], ms_combs: [0], ctildes: [0.063686013624466756, 0.00857786681394772]}
    - {mu0: 0, rank: 2, ndensity: 2, num_ms_combs: 1, mus: [0, 0], ns: [1, 1], ls: [0, 0], ms_combs: [0, 0], ctildes: [0.040409494220348119, 0.0032797204898506929]}
    - {mu0: 0, rank: 2, ndensity: 2, num_ms_combs: 2, mus: [0, 0], ns: [1, 1], ls: [1, 1], ms_combs: [0, 0, 1, -1], ctildes: [0.017690764885472117, 0.0031942167442014016, -0.035381529770944227, -0.0063884334884028015]}
    - {mu0: 0, rank: 2, ndensity: 2, num_ms_combs: 3, mus: [0, 0], ns: [1, 1], ls: [2, 2], ms_combs: [0, 0, 1, -1, 2, -2], ctildes: [0.040354910149442008, 0.017709165233969679, -0.080709820298884016, -0.035418330467939366, 0.080709820298884044, 0.035418330467939373]}
    - {mu0: 0, rank: 2, ndensity: 2, num_ms_combs: 4, mus: [0, 0], ns: [1, 1], ls: [3, 3], ms_combs: [0, 0, 1, -1, 2, -2, 3, -3], ctildes: [-0.010546003797390445, 0.0063547899154969461, 0.021092007594780891, -0.012709579830993892, -0.021092007594780887, 0.01270957983099389, 0.021092007594780887, -0.01270957983099389]}
    - {mu0: 0, rank: 2, ndensity: 2, num_ms_combs: 1, mus: [0, 0], ns: [1, 2], ls: [0, 0], ms_combs: [0, 0], ctildes: [-0.017614156619434936, -0.019377131946348256]}
    - {mu0: 0, rank: 2, ndensity: 2, num_ms_combs: 2, mus: [0, 0], ns: [1, 2], ls: [1, 1], ms_combs: [0, 0, 1, -1], ctildes: [0.0035130373978721572, -0.003924770597101941, -0.0070260747957443127, 0.0078495411942038802]}
    - {mu0: 0, rank: 2, ndensity: 2, num_ms_combs: 3, mus: [0, 0], ns: [1, 2], ls: [2, 2], ms_combs: [0, 0, 1, -1, 2, -2], ctildes: [-0.00029095419295447879, 0.0022826484135067566, 0.00058190838590895758, -0.004565296827013514, -0.0005819083859089578, 0.0045652968270135149]}
    - {mu0: 0, rank: 2, ndensity: 2, num_ms_combs: 4, mus: [0, 0], ns: [1, 2], ls: [3, 3], ms_combs: [0, 0, 1, -1, 2, -2, 3, -3], ctildes: [0.006810224817482744, -0.0050887109141036372, -0.013620449634965488, 0.010177421828207274, 0.013620449634965486, -0.010177421828207273, -0.013620449634965486, 0.010177421828207273]}
    - {mu0: 0, rank: 2, ndensity: 2, num_ms_combs: 1, mus: [0, 0], ns: [1, 3], ls: [0, 0], ms_combs: [0, 0], ctildes: [0.055876558480356067, 0.011014385403583123]}
    - {mu0: 0, rank: 2, ndensity: 2, num_ms_combs: 2, mus: [0, 0], ns: [1, 3], ls: [1, 1], ms_combs: [0, 0, 1, -1], ctildes: [0.0026789491747145496, -0.0042508374771578362, -0.0053578983494290983, 0.0085016749543156706]}
    - {mu0: 0, rank: 2, ndensity: 2, num_ms_combs: 3, mus: [0, 0], ns: [1, 3], ls: [2, 2], ms_combs: [0, 0, 1, -1, 2, -2], ctildes: [0.027493683403163435, 0.0091323658174312459, -0.054987366806326876, -0.018264731634862492, 0.05498736680632689, 0.018264731634862495]}
    - {mu0: 0, rank: 2, ndensity: 2, num_ms_combs: 4, mus: [0, 0], ns: [1, 3], ls: [3, 3], ms_combs: [0, 0, 1, -1, 2, -2, 3, -3], ctildes: [-0.0032629987266413834, -0.0090538982187999984, 0.0065259974532827668, 0.018107796437599997, -0.0065259974532827659, -0.018107796437599993, 0.0065259974532827659, 0.018107796437599993]}
    - {mu0: 0, rank: 2, ndensity: 2, num_ms_combs: 1, mus: [0, 0], ns: [1, 4], ls: [0, 0], ms_combs: [0, 0], ctildes: [0.057647307079358785, 0.0011463009533129889]}
    - {mu0: 0, rank: 2, ndensity: 2, num_ms_combs: 2, mus: [0, 0], ns: [1, 4], ls: [1, 1], ms_combs: [0, 0, 1, -1], ctildes: [-0.0011861212505573458, 0.0037259106275369901, 0.0023722425011146911, -0.0074518212550739784]}
    - {mu0: 0, rank: 2, ndensity: 2, num_ms_combs: 3, mus: [0, 0], ns: [1, 4], ls: [2, 2], ms_combs: [0, 0, 1, -1, 2, -2], ctildes: [-0.0026646575515311211, -0.001150603726291509, 0.0053293151030622422, 0.0023012074525830184, -0.0053293151030622439, -0.0023012074525830188]}
    - {mu0: 0, rank: 2, ndensity: 2, num_ms_combs: 1, mus: [0, 0], ns: [1, 5], ls: [0, 0], ms_combs: [0, 0], ctildes: [0.031986171178811106, 0.00054351413822440093]}
    - {mu0: 0, rank: 2, ndensity: 2, num_ms_combs: 2, mus: [0, 0], ns: [1, 5], ls: [1, 1], ms_combs: [0, 0, 1, -1], ctildes: [0.00060153273765885349, -0.00017523039626487965, -0.0012030654753177068, 0.00035046079252975924]}
    - {mu0: 0, rank: 2, ndensity: 2, num_ms_combs: 3, mus: [0, 0], ns: [1, 5], ls: [2, 2], ms_combs: [0, 0, 1, -1, 2, -2], ctildes: [0.0092451528711146504, -0.015956290556360827, -0.018490305742229301, 0.031912581112721661, 0.018490305742229308, -0.031912581112721668]}
    - {mu0: 0, rank: 2, ndensity: 2, num_ms_combs: 1, mus: [0, 0], ns: [1, 6], ls: [0, 0], ms_combs: [0, 0], ctildes: [-0.039246416605222947, 0.0059451594875875478]}
    - {mu0: 0, rank: 2, ndensity: 2, num_ms_combs: 2, mus: [0, 0], ns: [1, 6], ls: [1, 1], ms_combs: [0, 0, 1, -1], ctildes: [0.0046837983999325882, 0.0093827337692872579, -0.0093675967998651747, -0.018765467538574512]}
    - {mu0: 0, rank: 2, ndensity: 2, num_ms_combs: 1, mus: [0, 0], ns: [2, 2], ls: [0, 0], ms_combs: [0, 0], ctildes: [-0.051180292389632544, -0.023406114821391755]}
    - {mu0: 0, rank: 2, ndensity: 2, num_ms_combs: 2, mus: [0, 0], ns: [2, 2], ls: [1, 1], ms_combs: [0, 0, 1, -1], ctildes: [-0.0094699761592701923, -0.008980489249003059, 0.018939952318540381, 0.017960978498006114]}
    - {mu0: 0, rank: 2, ndensity: 2, num_ms_combs: 3, mus: [0, 0], ns: [2, 2], ls: [2, 2], ms_combs: [0, 0, 1, -1, 2, -2], ctildes: [0.032846378978967757, 0.0068905549574203992, -0.065692757957935513, -0.0137811099148408, 0.065692757957935541, 0.013781109914840804]}
    - {mu0: 0, rank: 2, ndensity: 2, num_ms_combs: 4, mus: [0, 0], ns: [2, 2], ls: [3, 3], ms_combs: [0, 0, 1, -1, 2, -2, 3, -3], ctildes: [0.0018384861855863751, -0.00063297561534499136, -0.0036769723711727502, 0.0012659512306899827, 0.0036769723711727498, -0.0012659512306899827, -0.0036769723711727498, 0.0012659512306899827]}
    - {mu0: 0, rank: 2, ndensity: 2, num_ms_combs: 1, mus: [0, 0], ns: [2, 3], ls: [0, 0], ms_combs: [0, 0], ctildes: [0.016195651588353736, -0.011603744827943388]}
    - {mu0: 0, rank: 2, ndensity: 2, num_ms_combs: 2, mus: [0, 0], ns: [2, 3], ls: [1, 1], ms_combs: [0, 0, 1, -1], ctildes: [0.027535402962730608, 0.013591575942371958, -0.055070805925461201, -0.027183151884743913]}
    - {mu0: 0, rank: 2, ndensity: 2, num_ms_combs: 3, mus: [0, 0], ns: [2, 3], ls: [2, 2], ms_combs: [0, 0, 1, -1, 2, -2], ctildes: [-0.015576858232115546, -0.010374651554224238, 0.031153716464231096, 0.020749303108448476, -0.031153716464231103, -0.020749303108448483]}
    - {mu0: 0, rank: 2, ndensity: 2, num_ms_combs: 1, mus: [0, 0], ns: [2, 4], ls: [0, 0], ms_combs: [0, 0], ctildes: [-0.045092101511199079, -0.047519139815700356]}
    - {mu0: 0, rank: 2, ndensity: 2, num_ms_combs: 2, mus: [0, 0], ns: [2, 4], ls: [1, 1], ms_combs: [0, 0, 1, -1], ctildes: [0.0053118544753487339, -0.0043977009481178846, -0.010623708950697464, 0.0087954018962357675]}
    - {mu0: 0, rank: 2, ndensity: 2, num_ms_combs: 3, mus: [0, 0], ns: [2, 4], ls: [2, 2], ms_combs: [0, 0, 1, -1, 2, -2], ctildes: [-0.0061710757655510885, 0.017331574172788265, 0.012342151531102179, -0.03466314834557653, -0.012342151531102182, 0.034663148345576544]}
    - {mu0: 0, rank: 2, ndensity: 2, num_ms_combs: 1, mus: [0, 0], ns: [2, 5], ls: [0, 0], ms_combs: [0, 0], ctildes: [-0.043472025581733423, 0.011789646799243464]}
    - {mu0: 0, rank: 2, ndensity: 2, num_ms_combs: 2, mus: [0, 0], ns: [2, 5], ls: [1, 1], ms_combs: [0, 0, 1, -1], ctildes: [3.5987422814125067e-05, -0.008301885950682146, -7.1974845628250121e-05, 0.016603771901364289]}
    - {mu0: 0, rank: 2, ndensity: 2, num_ms_combs: 1, mus: [0, 0], ns: [2, 6], ls: [0, 0], ms_combs: [0, 0], ctildes: [-0.033783120197230634, 0.016236401628067713]}
    - {mu0: 0, rank: 2, ndensity: 2, num_ms_combs: 2, mus: [0, 0], ns: [2, 6], ls: [1, 1], ms_combs: [0, 0, 1, -1], ctildes: [-0.0095597346566858657, -0.0026162373957626973, 0.019119469313371728, 0.005232474791525393]}
    - {mu0: 0, rank: 2, ndensity: 2, num_ms_combs: 1, mus: [0, 0], ns: [3, 3], ls: [0, 0], ms_combs: [0, 0], ctildes: [0.012878719734397177, -0.005713150208787085]}
    - {mu0: 0, rank: 2, ndensity: 2, num_ms_combs: 2, mus: [0, 0], ns: [3, 3], ls: [1, 1], ms_combs: [0, 0, 1, -1], ctildes: [0.007857778039004143, 0.008689075565875868, -0.015715556078008282, -0.017378151131751732]}
    - {mu0: 0, rank: 2, ndensity: 2, num_ms_combs: 3, mus: [0, 0], ns: [3, 3], ls: [2, 2], ms_combs: [0, 0, 1, -1, 2, -2], ctildes: [0.0090406649088905604, -0.0051596593814214661, -0.018081329817781124, 0.010319318762842934, 0.018081329817781128, -0.010319318762842936]}
    - {mu0: 0, rank: 2, ndensity: 2, num_ms_combs: 1, mus: [0, 0], ns: [3, 4], ls: [0, 0], ms_combs: [0, 0], ctildes: [-0.020937813380822842, -0.0090915997056175094]}
    - {mu0: 0, rank: 2, ndensity: 2, num_ms_combs: 2, mus: [0, 0], ns: [3, 4], ls: [1, 1], ms_combs: [0, 0, 1, -1], ctildes: [0.00042437293425322725, -0.0061939277291607302, -0.00084874586850645429, 0.012387855458321457]}
    - {mu0: 0, rank: 2, ndensity: 2, num_ms_combs: 1, mus: [0, 0], ns: [3, 5], ls: [0, 0], ms_combs: [0, 0], ctildes: [-0.00066342518912789025, -0.0029029124847801558]}
    - {mu0: 0, rank: 2, ndensity: 2, num_ms_combs: 2, mus: [0, 0], ns: [3, 5], ls: [1, 1], ms_combs: [0, 0, 1, -1], ctildes: [0.0055571786957802453, 0.0057890019537613175, -0.011114357391560489, -0.011578003907522633]}
    - {mu0: 0, rank: 2, ndensity: 2, num_ms_combs: 1, mus: [0, 0], ns: [3, 6], ls: [0, 0], ms_combs: [0, 0], ctildes: [0.0087485112896902237, 0.00014840095874767289]}
    - {mu0: 0, rank: 2, ndensity: 2, num_ms_combs: 1, mus: [0, 0], ns: [4, 4], ls: [0, 0], ms_combs: [0, 0], ctildes: [0.017995280355495039, 0.027258535449332738]}
    - {mu0: 0, rank: 2, ndensity: 2, num_ms_combs: 2, mus: [0, 0], ns: [4, 4], ls: [1, 1], ms_combs: [0, 0, 1, -1], ctildes: [-0.0053417956169841884, -0.0037998954153959262, 0.010683591233968375, 0.0075997908307918515]}
    - {mu0: 0, rank: 2, ndensity: 2, num_ms_combs: 1, mus: [0, 0], ns: [4, 5], ls: [0, 0], ms_combs: [0, 0], ctildes: [-0.010481608684213186, -0.024691264279188368]}
    - {mu0: 0, rank: 2, ndensity: 2, num_ms_combs: 1, mus: [0, 0], ns: [4, 6], ls: [0, 0], ms_combs: [0, 0], ctildes: [0.011749508111113274, -0.0024360054532131283]}
    - {mu0: 0, rank: 2, ndensity: 2, num_ms_combs: 1, mus: [0, 1], ns: [1, 1], ls: [0, 0], ms_combs: [0, 0], ctildes: [0.096309483980931143, 0.00084182271310896044]}
    - {mu0: 0, rank: 2, ndensity: 2, num_ms_combs: 2, mus: [0, 1], ns: [1, 1], ls: [1, 1], ms_combs: [0, 0, 1, -1], ctildes: [0.0083362769108932949, 0.028440776022122232, -0.016672553821786586, -0.05688155204424445]}
    - {mu0: 0, rank: 2, ndensity: 2, num_ms_combs: 3, mus: [0, 1], ns: [1, 1], ls: [2, 2], ms_combs: [0, 0, 1, -1, 2, -2], ctildes: [0.060175217894233385, 0.032842403726429374, -0.12035043578846678, -0.065684807452858748, 0.12035043578846681, 0.065684807452858762]}
    - {mu0: 0, rank: 2, ndensity: 2, num_ms_combs: 1, mus: [0, 1], ns: [1, 2], ls: [0, 0], ms_combs: [0, 0], ctildes: [-0.0067360791891125683, -0.035766110901220491]}
    - {mu0: 0, rank: 2, ndensity: 2, num_ms_combs: 2, mus: [0, 1], ns: [1, 2], ls: [1, 1], ms_combs: [0, 0, 1, -1], ctildes: [0.0098030870548247648, 0.0041279976430004476, -0.019606174109649526, -0.0082559952860008935]}
    - {mu0: 0, rank: 2, ndensity: 2, num_ms_combs: 3, mus: [0, 1], ns: [1, 2], ls: [2, 2], ms_combs: [0, 0, 1, -1, 2, -2], ctildes: [0.02508346261942946, 0.027888867042628961, -0.050166925238858927, -0.055777734085257928, 0.050166925238858934, 0.055777734085257942]}
    - {mu0: 0, rank: 2, ndensity: 2, num_ms_combs: 1, mus: [0, 1], ns: [1, 3], ls: [0, 0], ms_combs: [0, 0], ctildes: [0.027947201840078161, 0.015110481562721493]}
    - {mu0: 0, rank: 2, ndensity: 2, num_ms_combs: 2, mus: [0, 1], ns: [1, 3], ls: [1, 1], ms_combs: [0, 0, 1, -1], ctildes: [0.0081121791312468907, -0.019047317682228337, -0.016224358262493778, 0.038094635364456668]}
    - {mu0: 0, rank: 2, ndensity: 2, num_ms_combs: 1, mus: [0, 1], ns: [1, 4], ls: [0, 0], ms_combs: [0, 0], ctildes: [0.12930571518133199, 0.044841694529064245]}
    - {mu0: 0, rank: 2, ndensity: 2, num_ms_combs: 2, mus: [0, 1], ns: [1, 4], ls: [1, 1], ms_combs: [0, 0, 1, -1], ctildes: [0.052865064926112405, 0.0052060907208937683, -0.1057301298522248, -0.010412181441787535]}
    - {mu0: 0, rank: 2, ndensity: 2, num_ms_combs: 1, mus: [0, 1], ns: [1, 5], ls: [0, 0], ms_combs: [0, 0], ctildes: [-0.0016876544048592466, 0.028979703850203022]}
    - {mu0: 0, rank: 2, ndensity: 2, num_ms_combs: 1, mus: [0, 1], ns: [1, 6], ls: [0, 0], ms_combs: [0, 0], ctildes: [0.0042610653627938502, 0.025458550646462727]}
    - {mu0: 0, rank: 2, ndensity: 2, num_ms_combs: 1, mus: [0, 1], ns: [2, 1], ls: [0, 0], ms_combs: [0, 0], ctildes: [0.016947488582675731, -0.028980704814965206]}
    - {mu0: 0, rank: 2, ndensity: 2, num_ms_combs: 2, mus: [0, 1], ns: [2, 1], ls: [1, 1], ms_combs: [0, 0, 1, -1], ctildes: [0.017518071440687833, 0.0046437380249855853, -0.035036142881375659, -0.0092874760499711689]}
    - {mu0: 0, rank: 2, ndensity: 2, num_ms_combs: 3, mus: [0, 1], ns: [2, 1], ls: [2, 2], ms_combs: [0, 0, 1, -1, 2, -2], ctildes: [0.047601521601680144, 0.032406828850299066, -0.095203043203360302, -0.064813657700598132, 0.09520304320336033, 0.06481365770059816]}
    - {mu0: 0, rank: 2, ndensity: 2, num_ms_combs: 1, mus: [0, 1], ns: [2, 2], ls: [0, 0], ms_combs: [0, 0], ctildes: [-0.059099484143691559, -0.034615035804657954]}
    - {mu0: 0, rank: 2, ndensity: 2, num_ms_combs: 2, mus: [0, 1], ns: [2, 2], ls: [1, 1], ms_combs: [0, 0, 1, -1], ctildes: [-0.0067503837394729156, 0.0079357793055188555, 0.013500767478945828, -0.015871558611037707]}
    - {mu0: 0, rank: 2, ndensity: 2, num_ms_combs: 1, mus: [0, 1], ns: [2, 3], ls: [0, 0], ms_combs: [0, 0], ctildes: [-0.011721067823237601, 0.011997860187185079]}
    - {mu0: 0, rank: 2, ndensity: 2, num_ms_combs: 2, mus: [0, 1], ns: [2, 3], ls: [1, 1], ms_combs: [0, 0, 1, -1], ctildes: [0.016351734374607716, 0.031218022274354142, -0.032703468749215425, -0.062436044548708269]}
    - {mu0: 0, rank: 2, ndensity: 2, num_ms_combs: 1, mus: [0, 1], ns: [2, 4], ls: [0, 0], ms_combs: [0, 0], ctildes: [-0.062115406312274711, -0.069574725207475541]}
    - {mu0: 0, rank: 2, ndensity: 2, num_ms_combs: 1, mus: [0, 1], ns: [2, 5], ls: [0, 0], ms_combs: [0, 0], ctildes: [-0.08866478187327391, 0.044223967997215202]}
    - {mu0: 0, rank: 2, ndensity: 2, num_ms_combs: 1, mus: [0, 1], ns: [3, 1], ls: [0, 0], ms_combs: [0, 0], ctildes: [0.013976158251295773, -0.007535495563391433]}
    - {mu0: 0, rank: 2, ndensity: 2, num_ms_combs: 2, mus: [0, 1], ns: [3, 1], ls: [1, 1], ms_combs: [0, 0, 1, -1], ctildes: [-0.030484069258430294, -0.0034935508760664809, 0.06096813851686058, 0.0069871017521329608]}
    - {mu0: 0, rank: 2, ndensity: 2, num_ms_combs: 1, mus: [0, 1], ns: [3, 2], ls: [0, 0], ms_combs: [0, 0], ctildes: [-0.027946295338075175, -0.018399063377852194]}
    - {mu0: 0, rank: 2, ndensity: 2, num_ms_combs: 2, mus: [0, 1], ns: [3, 2], ls: [1, 1], ms_combs: [0, 0, 1, -1], ctildes: [0.034796124052878109, 0.043930048267281585, -0.069592248105756205, -0.087860096534563156]}
    - {mu0: 0, rank: 2, ndensity: 2, num_ms_combs: 1, mus: [0, 1], ns: [3, 3], ls: [0, 0], ms_combs: [0, 0], ctildes: [-0.00051021250864101441, 0.0078710098188441262]}
    - {mu0: 0, rank: 2, ndensity: 2, num_ms_combs: 1, mus: [0, 1], ns: [3, 4], ls: [0, 0], ms_combs: [0, 0], ctildes: [0.043395121720903249, 0.010036546420011082]}
    - {mu0: 0, rank: 2, ndensity: 2, num_ms_combs: 1, mus: [0, 1], ns: [4, 1], ls: [0, 0], ms_combs: [0, 0], ctildes: [0.083941522309520317, 0.0069831950331401341]}
    - {mu0: 0, rank: 2, ndensity: 2, num_ms_combs: 2, mus: [0, 1], ns: [4, 1], ls: [1, 1], ms_combs: [0, 0, 1, -1], ctildes: [0.03972839827069502, 0.040661364795260314, -0.079456796541390026, -0.081322729590520615]}
    - {mu0: 0, rank: 2, ndensity: 2, num_ms_combs: 1, mus: [0, 1], ns: [4, 2], ls: [0, 0], ms_combs: [0, 0], ctildes: [-0.024206947907679521, -0.057132461083180541]}
    - {mu0: 0, rank: 2, ndensity: 2, num_ms_combs: 1, mus: [0, 1], ns: [4, 3], ls: [0, 0], ms_combs: [0, 0], ctildes: [0.023876143824452536, -0.0084776477141826397]}
    - {mu0: 0, rank: 2, ndensity: 2, num_ms_combs: 1, mus: [0, 1], ns: [5, 1], ls: [0, 0], ms_combs: [0, 0], ctildes: [0.009609123862036691, -0.017662104866282346]}
    - {mu0: 0, rank: 2, ndensity: 2, num_ms_combs: 1, mus: [0, 1], ns: [5, 2], ls: [0, 0], ms_combs: [0, 0], ctildes: [-0.080767974549502339, 0.0041700999419075849]}
    - {mu0: 0, rank: 2, ndensity: 2, num_ms_combs: 1, mus: [0, 1], ns: [6, 1], ls: [0, 0], ms_combs: [0, 0], ctildes: [-0.011006801335424424, -0.021085790417579665]}
    - {mu0: 0, rank: 2, ndensity: 2, num_ms_combs: 1, mus: [0, 2], ns: [1, 1], ls: [0, 0], ms_combs: [0, 0], ctildes: [0.022203317632199904, -0.014407383865198114]}
    - {mu0: 0, rank: 2, ndensity: 2, num_ms_combs: 2, mus: [0, 2], ns: [1, 1], ls: [1, 1], ms_combs: [0, 0, 1, -1], ctildes: [-0.00244227223658774, -0.01162484534642717, 0.004884544473175479, 0.023249690692854333]}
    - {mu0: 0, rank: 2, ndensity: 2, num_ms_combs: 3, mus: [0, 2], ns: [1, 1], ls: [2, 2], ms_combs: [0, 0, 1, -1, 2, -2], ctildes: [-0.0059263708908835009, 0.0027351627016115698, 0.011852741781767004, -0.0054703254032231405, -0.011852741781767005, 0.0054703254032231413]}
    - {mu0: 0, rank: 2, ndensity: 2, num_ms_combs: 1, mus: [0, 2], ns: [1, 2], ls: [0, 0], ms_combs: [0, 0], ctildes: [0.14832077656338313, 0.027817969426715761]}
    - {mu0: 0, rank: 2, ndensity: 2, num_ms_combs: 2, mus: [0, 2], ns: [1, 2], ls: [1, 1], ms_combs: [0, 0, 1, -1], ctildes: [-0.0084110612469667518, -0.00030399919999686461, 0.0168221224939335, 0.00060799839999372911]}
    - {mu0: 0, rank: 2, ndensity: 2, num_ms_combs: 3, mus: [0, 2], ns: [1, 2], ls: [2, 2], ms_combs: [0, 0, 1, -1, 2, -2], ctildes: [-0.056506096990509888, -0.041800015048791314, 0.11301219398101979, 0.083600030097582642, -0.11301219398101982, -0.083600030097582656]}
    - {mu0: 0, rank: 2, ndensity: 2, num_ms_combs: 1, mus: [0, 2], ns: [1, 3], ls: [0, 0], ms_combs: [0, 0], ctildes: [0.0047134009261563256, -0.011786673154523617]}
    - {mu0: 0, rank: 2, ndensity: 2, num_ms_combs: 2, mus: [0, 2], ns: [1, 3], ls: [1, 1], ms_combs: [0, 0, 1, -1], ctildes: [-0.034747904905830178, 0.0019179842211907189, 0.069495809811660342, -0.003835968442381437]}
    - {mu0: 0, rank: 2, ndensity: 2, num_ms_combs: 1, mus: [0, 2], ns: [1, 4], ls: [0, 0], ms_combs: [0, 0], ctildes: [0.015658536859492436, -0.026442197359938201]}
    - {mu0: 0, rank: 2, ndensity: 2, num_ms_combs: 2, mus: [0, 2], ns: [1, 4], ls: [1, 1], ms_combs: [0, 0, 1, -1], ctildes: [0.012071972323711882, -0.0081831187051393337, -0.024143944647423761, 0.016366237410278664]}
    - {mu0: 0, rank: 2, ndensity: 2, num_ms_combs: 1, mus: [0, 2], ns: [1, 5], ls: [0, 0], ms_combs: [0, 0], ctildes: [-0.0095217537909612661, 0.017283904948403525]}
    - {mu0: 0, rank: 2, ndensity: 2, num_ms_combs: 1, mus: [0, 2], ns: [1, 6], ls: [0, 0], ms_combs: [0, 0], ctildes: [0.038724394248460567, -0.033354027531997177]}
    - {mu0: 0, rank: 2, ndensity: 2, num_ms_combs: 1, mus: [0, 2], ns: [2, 1], ls: [0, 0], ms_combs: [0, 0], ctildes: [-0.091871086905635238, -0.040284138049000259]}
    - {mu0: 0, rank: 2, ndensity: 2, num_ms_combs: 2, mus: [0, 2], ns: [2, 1], ls: [1, 1], ms_combs: [0, 0, 1, -1], ctildes: [-0.01056788646913227, -0.01009585763235942, 0.021135772938264536, 0.020191715264718836]}
    - {mu0: 0, rank: 2, ndensity: 2, num_ms_combs: 3, mus: [0, 2], ns: [2, 1], ls: [2, 2], ms_combs: [0, 0, 1, -1, 2, -2], ctildes: [-0.0024973536517957562, 0.017099235127159673, 0.0049947073035915132, -0.034198470254319352, -0.004994707303591514, 0.034198470254319359]}
    - {mu0: 0, rank: 2, ndensity: 2, num_ms_combs: 1, mus: [0, 2], ns: [2, 2], ls: [0, 0], ms_combs: [0, 0], ctildes: [0.029448363959554656, -0.028131917020035938]}
    - {mu0: 0, rank: 2, ndensity: 2, num_ms_combs: 2, mus: [0, 2], ns: [2, 2], ls: [1, 1], ms_combs: [0, 0, 1, -1], ctildes: [0.051671638994958628, -0.0094118204027341702, -0.10334327798991723, 0.018823640805468334]}
    - {mu0: 0, rank: 2, ndensity: 2, num_ms_combs: 1, mus: [0, 2], ns: [2, 3], ls: [0, 0], ms_combs: [0, 0], ctildes: [-0.055541561404349883, -0.037755302490017996]}
    - {mu0: 0, rank: 2, ndensity: 2, num_ms_combs: 2, mus: [0, 2], ns: [2, 3], ls: [1, 1], ms_combs: [0, 0, 1, -1], ctildes: [0.0034859083004632118, 0.0030090446632082793, -0.0069718166009264228, -0.0060180893264165577]}
    - {mu0: 0, rank: 2, ndensity: 2, num_ms_combs: 1, mus: [0, 2], ns: [2, 4], ls: [0, 0], ms_combs: [0, 0], ctildes: [0.026335087218197033, 0.0094713542048477928]}
    - {mu0: 0, rank: 2, ndensity: 2, num_ms_combs: 1, mus: [0, 2], ns: [2, 5], ls: [0, 0], ms_combs: [0, 0], ctildes: [-0.0095686443971989901, 0.022386567695304213]}
    - {mu0: 0, rank: 2, ndensity: 2, num_ms_combs: 1, mus: [0, 2], ns: [3, 1], ls: [0, 0], ms_combs: [0, 0], ctildes: [0.026059335009071823, -0.010790731517762954]}
    - {mu0: 0, rank: 2, ndensity: 2, num_ms_combs: 2, mus: [0, 2], ns: [3, 1], ls: [1, 1], ms_combs: [0, 0, 1, -1], ctildes: [-0.00017276582314485511, -0.0032660939609285154, 0.00034553164628971017, 0.0065321879218570291]}
    - {mu0: 0, rank: 2, ndensity: 2, num_ms_combs: 1, mus: [0, 2], ns: [3, 2], ls: [0, 0], ms_combs: [0, 0], ctildes: [0.079216662751517952, 0.01103045841722532]}
    - {mu0: 0, rank: 2, ndensity: 2, num_ms_combs: 2, mus: [0, 2], ns: [3, 2], ls: [1, 1], ms_combs: [0, 0, 1, -1], ctildes: [-0.014129331281440217, 0.0057230923913732324, 0.02825866256288043, -0.011446184782746463]}
    - {mu0: 0, rank: 2, ndensity: 2, num_ms_combs: 1, mus: [0, 2], ns: [3, 3], ls: [0, 0], ms_combs: [0, 0], ctildes: [0.020400643785791837, -0.016345570174566337]}
    - {mu0: 0, rank: 2, ndensity: 2, num_ms_combs: 1, mus: [0, 2], ns: [3, 4], ls: [0, 0], ms_combs: [0, 0], ctildes: [-0.037309012509234817, 0.0029186982133967677]}
    - {mu0: 0, rank: 2, ndensity: 2, num_ms_combs: 1, mus: [0, 2], ns: [4, 1], ls: [0, 0], ms_combs: [0, 0], ctildes: [-0.028771857135665574, -0.01814391620920482]}
    - {mu0: 0, rank: 2, ndensity: 2, num_ms_combs: 2, mus: [0, 2], ns: [4, 1], ls: [1, 1], ms_combs: [0, 0, 1, -1], ctildes: [0.013903915476064061, -0.023791520100116148, -0.027807830952128115, 0.047583040200232282]}
    - {mu0: 0, rank: 2, ndensity: 2, num_ms_combs: 1, mus: [0, 2], ns: [4, 2], ls: [0, 0], ms_combs: [0, 0], ctildes: [-0.0091027682195515512, -0.067675747037584055]}
    - {mu0: 0, rank: 2, ndensity: 2, num_ms_combs: 1, mus: [0, 2], ns: [4, 3], ls: [0, 0], ms_combs: [0, 0], ctildes: [-0.011097366903079451, 0.038081965924796526]}
    - {mu0: 0, rank: 2, ndensity: 2, num_ms_combs: 1, mus: [0, 2], ns: [5, 1], ls: [0, 0], ms_combs: [0, 0], ctildes: [-0.067375200426724138, 0.042262310310143096]}
    - {mu0: 0, rank: 2, ndensity: 2, num_ms_combs: 1, mus: [0, 2], ns: [5, 2], ls: [0, 0], ms_combs: [0, 0], ctildes: [-0.030639076015910791, 0.031213907546498408]}
    - {mu0: 0, rank: 2, ndensity: 2, num_ms_combs: 1, mus: [0, 2], ns: [6, 1], ls: [0, 0], ms_combs: [0, 0], ctildes: [0.039954084338147129, -0.03337331954684012]}
    - {mu0: 0, rank: 2, ndensity: 2, num_ms_combs: 1, mus: [1, 1], ns: [1, 1], ls: [0, 0], ms_combs: [0, 0], ctildes: [0.033675968421174464, -0.019004504317883069]}
    - {mu0: 0, rank: 2, ndensity: 2, num_ms_combs: 2, mus: [1, 1], ns: [1, 1], ls: [1, 1], ms_combs: [0, 0, 1, -1], ctildes: [0.014207378707497671, 0.022549712977990265, -0.028414757414995336, -0.045099425955980522]}
    - {mu0: 0, rank: 2, ndensity: 2, num_ms_combs: 3, mus: [1, 1], ns: [1, 1], ls: [2, 2], ms_combs: [0, 0, 1, -1, 2, -2], ctildes: [0.025680874771543977, 0.018117331462726635, -0.051361749543087962, -0.03623466292545327, 0.051361749543087976, 0.036234662925453284]}
    - {mu0: 0, rank: 2, ndensity: 2, num_ms_combs: 1, mus: [1, 1], ns: [1, 2], ls: [0, 0], ms_combs: [0, 0], ctildes: [-0.049569520546240933, -0.057825760845491153]}
    - {mu0: 0, rank: 2, ndensity: 2, num_ms_combs: 2, mus: [1, 1], ns: [1, 2], ls: [1, 1], ms_combs: [0, 0, 1, -1], ctildes: [0.0080389710514318646, 0.0074559476908869588, -0.016077942102863726, -0.014911895381773914]}
    - {mu0: 0, rank: 2, ndensity: 2, num_ms_combs: 3, mus: [1, 1], ns: [1, 2], ls: [2, 2], ms_combs: [0, 0, 1, -1, 2, -2], ctildes: [0.026131662991511297, 0.032423475623903193, -0.0522633259830226, -0.0648469512478064, 0.052263325983022614, 0.064846951247806414]}
    - {mu0: 0, rank: 2, ndensity: 2, num_ms_combs: 1, mus: [1, 1], ns: [1, 3], ls: [0, 0], ms_combs: [0, 0], ctildes: [0.042588929166790974, 0.019094361831667194]}
    - {mu0: 0, rank: 2, ndensity: 2, num_ms_combs: 2, mus: [1, 1], ns: [1, 3], ls: [1, 1], ms_combs: [0, 0, 1, -1], ctildes: [-0.00091548967767220472, -0.025313792986298395, 0.001830979355344409, 0.050627585972596784]}
    - {mu0: 0, rank: 2, ndensity: 2, num_ms_combs: 1, mus: [1, 1], ns: [1, 4], ls: [0, 0], ms_combs: [0, 0], ctildes: [0.10981159573133864, 0.0059592843451159979]}
    - {mu0: 0, rank: 2, ndensity: 2, num_ms_combs: 2, mus: [1, 1], ns: [1, 4], ls: [1, 1], ms_combs: [0, 0, 1, -1], ctildes: [0.046466945802555802, 0.01528685107850878, -0.09293389160511159, -0.030573702157017556]}
    - {mu0: 0, rank: 2, ndensity: 2, num_ms_combs: 1, mus: [1, 1], ns: [1, 5], ls: [0, 0], ms_combs: [0, 0], ctildes: [-0.031943353036443987, 0.017794983223980154]}
    - {mu0: 0, rank: 2, ndensity: 2, num_ms_combs: 1, mus: [1, 1], ns: [1, 6], ls: [0, 0], ms_combs: [0, 0], ctildes: [0.039976483905275299, -0.0039776384822313507]}
    - {mu0: 0, rank: 2, ndensity: 2, num_ms_combs: 1, mus: [1, 1], ns: [2, 2], ls: [0, 0], ms_combs: [0, 0], ctildes: [-0.11197246228283231, -0.07664335708991564]}
    - {mu0: 0, rank: 2, ndensity: 2, num_ms_combs: 2, mus: [1, 1], ns: [2, 2], ls: [1, 1], ms_combs: [0, 0, 1, -1], ctildes: [-0.008415864452550853, 0.0036427007715907991, 0.016831728905101703, -0.0072854015431815964]}
    - {mu0: 0, rank: 2, ndensity: 2, num_ms_combs: 1, mus: [1, 1], ns: [2, 3], ls: [0, 0], ms_combs: [0, 0], ctildes: [-0.044410199025666092, -0.011614296984395754]}
    - {mu0: 0, rank: 2, ndensity: 2, num_ms_combs: 2, mus: [1, 1], ns: [2, 3], ls: [1, 1], ms_combs: [0, 0, 1, -1], ctildes: [0.03711315260410817, 0.011421894274881685, -0.074226305208216325, -0.022843788549763367]}
    - {mu0: 0, rank: 2, ndensity: 2, num_ms_combs: 1, mus: [1, 1], ns: [2, 4], ls: [0, 0], ms_combs: [0, 0], ctildes: [0.0006488370874458652, -0.045526636739694162]}
    - {mu0: 0, rank: 2, ndensity: 2, num_ms_combs: 1, mus: [1, 1], ns: [2, 5], ls: [0, 0], ms_combs: [0, 0], ctildes: [-0.098510179266299638, 0.017304515070048876]}
    - {mu0: 0, rank: 2, ndensity: 2, num_ms_combs: 1, mus: [1, 1], ns: [3, 3], ls: [0, 0], ms_combs: [0, 0], ctildes: [0.017248180456298553, 0.00074300547657210137]}
    - {mu0: 0, rank: 2, ndensity: 2, num_ms_combs: 1, mus: [1, 1], ns: [3, 4], ls: [0, 0], ms_combs: [0, 0], ctildes: [0.016677271720117872, -0.013215229412905316]}
    - {mu0: 0, rank: 2, ndensity: 2, num_ms_combs: 1, mus: [1, 2], ns: [1, 1], ls: [0, 0], ms_combs: [0, 0], ctildes: [0.023952422510529401, -0.037001898135668738]}
    - {mu0: 0, rank: 2, ndensity: 2, num_ms_combs: 2, mus: [1, 2], ns: [1, 1], ls: [1, 1], ms_combs: [0, 0, 1, -1], ctildes: [0.0023452110257077751, -0.013728386887938988, -0.0046904220514155494, 0.027456773775877973]}
    - {mu0: 0, rank: 2, ndensity: 2, num_ms_combs: 3, mus: [1, 2], ns: [1, 1], ls: [2, 2], ms_combs: [0, 0, 1, -1, 2, -2], ctildes: [0.02222705351211534, 0.019257089724885382, -0.044454107024230687, -0.038514179449770772, 0.044454107024230693, 0.038514179449770779]}
    - {mu0: 0, rank: 2, ndensity: 2, num_ms_combs: 1, mus: [1, 2], ns: [1, 2], ls: [0, 0], ms_combs: [0, 0], ctildes: [0.087656309243989525, 0.0057252898160045753]}
    - {mu0: 0, rank: 2, ndensity: 2, num_ms_combs: 2, mus: [1, 2], ns: [1, 2], ls: [1, 1], ms_combs: [0, 0, 1, -1], ctildes: [-0.0037825134132833411, 0.00049266878074284985, 0.0075650268265666804, -0.00098533756148569949]}
    - {mu0: 0, rank: 2, ndensity: 2, num_ms_combs: 3, mus: [1, 2], ns: [1, 2], ls: [2, 2], ms_combs: [0, 0, 1, -1, 2, -2], ctildes: [-0.062612089970790236, -0.048108589923160645, 0.1252241799415805, 0.096217179846321305, -0.12522417994158053, -0.096217179846321318]}
    - {mu0: 0, rank: 2, ndensity: 2, num_ms_combs: 1, mus: [1, 2], ns: [1, 3], ls: [0, 0], ms_combs: [0, 0], ctildes: [-0.043160564410758127, -0.031776865956400988]}
    - {mu0: 0, rank: 2, ndensity: 2, num_ms_combs: 2, mus: [1, 2], ns: [1, 3], ls: [1, 1], ms_combs: [0, 0, 1, -1], ctildes: [0.0022407419841724797, 0.0050067696680599289, -0.0044814839683449586, -0.010013539336119856]}
    - {mu0: 0, rank: 2, ndensity: 2, num_ms_combs: 1, mus: [1, 2], ns: [2, 1], ls: [0, 0], ms_combs: [0, 0], ctildes: [-0.15531755711917292, -0.090389087361719342]}
    - {mu0: 0, rank: 2, ndensity: 2, num_ms_combs: 2, mus: [1, 2], ns: [2, 1], ls: [1, 1], ms_combs: [0, 0, 1, -1], ctildes: [-0.0024156504322669641, -0.004222094907342361, 0.0048313008645339273, 0.0084441898146847202]}
    - {mu0: 0, rank: 2, ndensity: 2, num_ms_combs: 3, mus: [1, 2], ns: [2, 1], ls: [2, 2], ms_combs: [0, 0, 1, -1, 2, -2], ctildes: [-0.025026721761481536, -0.0091867390268157555, 0.050053443522963079, 0.018373478053631515, -0.050053443522963093, -0.018373478053631518]}
    - {mu0: 0, rank: 2, ndensity: 2, num_ms_combs: 1, mus: [1, 2], ns: [2, 2], ls: [0, 0], ms_combs: [0, 0], ctildes: [-0.05957430502776323, -0.050251003707325617]}
    - {mu0: 0, rank: 2, ndensity: 2, num_ms_combs: 2, mus: [1, 2], ns: [2, 2], ls: [1, 1], ms_combs: [0, 0, 1, -1], ctildes: [0.048670663138025344, -0.042958856421171941, -0.097341326276050674, 0.085917712842343869]}
    - {mu0: 0, rank: 2, ndensity: 2, num_ms_combs: 1, mus: [1, 2], ns: [2, 3], ls: [0, 0], ms_combs: [0, 0], ctildes: [-0.13306648049333308, -0.072141731618967364]}
    - {mu0: 0, rank: 2, ndensity: 2, num_ms_combs: 2, mus: [1, 2], ns: [2, 3], ls: [1, 1], ms_combs: [0, 0, 1, -1], ctildes: [-0.030104023345767082, 0.0080985386507683148, 0.060208046691534151, -0.016197077301536626]}
    - {mu0: 0, rank: 2, ndensity: 2, num_ms_combs: 1, mus: [1, 2], ns: [3, 1], ls: [0, 0], ms_combs: [0, 0], ctildes: [-0.002318526128199474, 0.018815235727603196]}
    - {mu0: 0, rank: 2, ndensity: 2, num_ms_combs: 2, mus: [1, 2], ns: [3, 1], ls: [1, 1], ms_combs: [0, 0, 1, -1], ctildes: [0.0073135375535338387, -0.0084352723005278636, -0.014627075107067674, 0.016870544601055724]}
    - {mu0: 0, rank: 2, ndensity: 2, num_ms_combs: 1, mus: [1, 2], ns: [3, 2], ls: [0, 0], ms_combs: [0, 0], ctildes: [0.0072538664904553806, 0.0048216726203581077]}
    - {mu0: 0, rank: 2, ndensity: 2, num_ms_combs: 2, mus: [1, 2], ns: [3, 2], ls: [1, 1], ms_combs: [0, 0, 1, -1], ctildes: [-0.0015620040474193079, 0.0048650531058595783, 0.0031240080948386154, -0.0097301062117191549]}
    - {mu0: 0, rank: 2, ndensity: 2, num_ms_combs: 1, mus: [1, 2], ns: [3, 3], ls: [0, 0], ms_combs: [0, 0], ctildes: [0.069809698653506405, 0.025407113848852605]}
    - {mu0: 0, rank: 2, ndensity: 2, num_ms_combs: 1, mus: [2, 2], ns: [1, 1], ls: [0, 0], ms_combs: [0, 0], ctildes: [-0.16610689054264816, -0.048623031769715844]}
    - {mu0: 0, rank: 2, ndensity: 2, num_ms_combs: 2, mus: [2, 2], ns: [1, 1], ls: [1, 1], ms_combs: [0, 0, 1, -1], ctildes: [-0.00097857049451074334, -0.0066141752165626323, 0.0019571409890214862, 0.013228350433125261]}
    - {mu0: 0, rank: 2, ndensity: 2, num_ms_combs: 3, mus: [2, 2], ns: [1, 1], ls: [2, 2], ms_combs: [0, 0, 1, -1, 2, -2], ctildes: [0.1452900489115527, -0.050314102842222597, -0.29058009782310545, 0.10062820568444521, 0.29058009782310551, -0.10062820568444523]}
    - {mu0: 0, rank: 2, ndensity: 2, num_ms_combs: 1, mus: [2, 2], ns: [1, 2], ls: [0, 0], ms_combs: [0, 0], ctildes: [0.093668193026043234, 0.042841421229842483]}
    - {mu0: 0, rank: 2, ndensity: 2, num_ms_combs: 2, mus: [2, 2], ns: [1, 2], ls: [1, 1], ms_combs: [0, 0, 1, -1], ctildes: [0.055728149615313888, 0.0040315175273124828, -0.11145629923062776, -0.0080630350546249639]}
    - {mu0: 0, rank: 2, ndensity: 2, num_ms_combs: 3, mus: [2, 2], ns: [1, 2], ls: [2, 2], ms_combs: [0, 0, 1, -1, 2, -2], ctildes: [-0.19110427872268082, -0.057916315412952279, 0.3822085574453617, 0.11583263082590457, -0.38220855744536181, -0.1158326308259046]}
    - {mu0: 0, rank: 2, ndensity: 2, num_ms_combs: 1, mus: [2, 2], ns: [1, 3], ls: [0, 0], ms_combs: [0, 0], ctildes: [-0.11150474657564786, -0.076560173819686245]}
    - {mu0: 0, rank: 2, ndensity: 2, num_ms_combs: 2, mus: [2, 2], ns: [1, 3], ls: [1, 1], ms_combs: [0, 0, 1, -1], ctildes: [-0.021845678354852439, 0.0050637973730982824, 0.043691356709704872, -0.010127594746196563]}
    - {mu0: 0, rank: 2, ndensity: 2, num_ms_combs: 1, mus: [2, 2], ns: [1, 4], ls: [0, 0], ms_combs: [0, 0], ctildes: [-0.17762569996904976, -0.041977788191828624]}
    - {mu0: 0, rank: 2, ndensity: 2, num_ms_combs: 2, mus: [2, 2], ns: [1, 4], ls: [1, 1], ms_combs: [0, 0, 1, -1], ctildes: [-0.012918271444879508, 0.019510798695025429, 0.02583654288975901, -0.039021597390050851]}
    - {mu0: 0, rank: 2, ndensity: 2, num_ms_combs: 1, mus: [2, 2], ns: [1, 5], ls: [0, 0], ms_combs: [0, 0], ctildes: [0.14615556777060565, 0.043391408279702365]}
    - {mu0: 0, rank: 2, ndensity: 2, num_ms_combs: 1, mus: [2, 2], ns: [1, 6], ls: [0, 0], ms_combs: [0, 0], ctildes: [-0.14571952071239561, 0.092907011328768677]}
    - {mu0: 0, rank: 2, ndensity: 2, num_ms_combs: 1, mus: [2, 2], ns: [2, 2], ls: [0, 0], ms_combs: [0, 0], ctildes: [0.23215893554008382, 0.12888167457420432]}
    - {mu0: 0, rank: 2, ndensity: 2, num_ms_combs: 2, mus: [2, 2], ns: [2, 2], ls: [1, 1], ms_combs: [0, 0, 1, -1], ctildes: [0.31879777494965023, 0.051502036403301109, -0.63759554989930034, -0.1030040728066022]}
    - {mu0: 0, rank: 2, ndensity: 2, num_ms_combs: 1, mus: [2, 2], ns: [2, 3], ls: [0, 0], ms_combs: [0, 0], ctildes: [-0.012165931432449756, 0.007707219580069237]}
    - {mu0: 0, rank: 2, ndensity: 2, num_ms_combs: 2, mus: [2, 2], ns: [2, 3], ls: [1, 1], ms_combs: [0, 0, 1, -1], ctildes: [-0.12596909869178066, -0.018510030193293885, 0.25193819738356127, 0.037020060386587762]}
    - {mu0: 0, rank: 2, ndensity: 2, num_ms_combs: 1, mus: [2, 2], ns: [2, 4], ls: [0, 0], ms_combs: [0, 0], ctildes: [-0.025753316876279006, 0.031544216648661617]}
    - {mu0: 0, rank: 2, ndensity: 2, num_ms_combs: 1, mus: [2, 2], ns: [2, 5], ls: [0, 0], ms_combs: [0, 0], ctildes: [4.3566906658797826e-05, -0.051795126119277501]}
    - {mu0: 0, rank: 2, ndensity: 2, num_ms_combs: 1, mus: [2, 2], ns: [3, 3], ls: [0, 0], ms_combs: [0, 0], ctildes: [0.08602709490308838, -0.042346810534821894]}
    - {mu0: 0, rank: 2, ndensity: 2, num_ms_combs: 1, mus: [2, 2], ns: [3, 4], ls: [0, 0], ms_combs: [0, 0], ctildes: [-0.06745825691936802, 0.081873703654901472]}
    - {mu0: 0, rank: 3, ndensity: 2, num_ms_combs: 1, mus: [0, 0, 0], ns: [1, 1, 1], ls: [0, 0, 0], ms_combs: [0, 0, 0], ctildes: [0.049059316628161057, 0.024172568501671498]}
    - {mu0: 0, rank: 3, ndensity: 2, num_ms_combs: 2, mus: [0, 0, 0], ns: [1, 1, 1], ls: [0, 1, 1], ms_combs: [0, 0, 0, 0, 1, -1], ctildes: [0.010938047957656844, 0.0053984026363433591, -0.021876095915313684, -0.010796805272686715]}
    - {mu0: 0, rank: 3, ndensity: 2, num_ms_combs: 3, mus: [0, 0, 0], ns: [1, 1, 1], ls: [0, 2, 2], ms_combs: [0, 0, 0, 0, 1, -1, 0, 2, -2], ctildes: [0.0018806488133297906, 0.0062178573998122539, -0.0037612976266595817, -0.012435714799624509, 0.0037612976266595825, 0.012435714799624513]}
    - {mu0: 0, rank: 3, ndensity: 2, num_ms_combs: 4, mus: [0, 0, 0], ns: [1, 1, 1], ls: [1, 1, 2], ms_combs: [-1, 1, 0, 0, 0, 0, 0, 1, -1, 1, 1, -2], ctildes: [-0.0080517970454347526, 0.0008999440890830663, -0.0080517970454347509, 0.00089994408908306619, 0.02789224314985193, -0.0031174977725263258, -0.019722794273764329, 0.0022044038152873222]}
    - {mu0: 0, rank: 3, ndensity: 2, num_ms_combs: 1, mus: [0, 0, 0], ns: [1, 1, 2], ls: [0, 0, 0], ms_combs: [0, 0, 0], ctildes: [0.01269975305626244, -0.0067715029314770765]}
    - {mu0: 0, rank: 3, ndensity: 2, num_ms_combs: 2, mus: [0, 0, 0], ns: [1, 1, 2], ls: [0, 1, 1], ms_combs: [0, 0, 0, 0, 1, -1], ctildes: [0.0031122828992096144, 0.0017179341047746535, -0.0062245657984192279, -0.0034358682095493066]}
    - {mu0: 0, rank: 3, ndensity: 2, num_ms_combs: 3, mus: [0, 0, 0], ns: [1, 1, 2], ls: [0, 2, 2], ms_combs: [0, 0, 0, 0, 1, -1, 0, 2, -2], ctildes: [0.00017921230826789137, 0.0020144830679117791, -0.0003584246165357828, -0.0040289661358235591, 0.00035842461653578291, 0.00402896613582356]}
    - {mu0: 0, rank: 3, ndensity: 2, num_ms_combs: 2, mus: [0, 0, 0], ns: [1, 1, 2], ls: [1, 1, 0], ms_combs: [0, 0, 0, 1, -1, 0], ctildes: [0.0038269056887023085, 0.014674670924218003, -0.0076538113774046162, -0.029349341848436]}
    - {mu0: 0, rank: 3, ndensity: 2, num_ms_combs: 4, mus: [0, 0, 0], ns: [1, 1, 2], ls: [1, 1, 2], ms_combs: [-1, 1, 0, 0, 0, 0, 0, 1, -1, 1, 1, -2], ctildes: [-0.0049716280121407212, -0.0018552499624033018, -0.0049716280121407212, -0.0018552499624033016, 0.017222224626720781, 0.0064267743912455374, -0.012177951820672222, -0.0045444157532057664]}
    - {mu0: 0, rank: 3, ndensity: 2, num_ms_combs: 5, mus: [0, 0, 0], ns: [1, 1, 2], ls: [1, 2, 1], ms_combs: [0, 0, 0, 0, 1, -1, 1, -2, 1, 1, -1, 0, 1, 0, -1], ctildes: [0.0037437412136581368, 0.0023915013062817455, -0.0064843499924454656, -0.0041422017688473225, 0.0091702557024902522, 0.0058579579195897069, -0.0064843499924454656, -0.0041422017688473225, 0.0037437412136581364, 0.0023915013062817451]}
    - {mu0: 0, rank: 3, ndensity: 2, num_ms_combs: 3, mus: [0, 0, 0], ns: [1, 1, 2], ls: [2, 2, 0], ms_combs: [0, 0, 0, 1, -1, 0, 2, -2, 0], ctildes: [-0.0016014936709277765, 0.0067457128382637718, 0.003202987341855553, -0.013491425676527545, -0.0032029873418555539, 0.013491425676527549]}
    - {mu0: 0, rank: 3, ndensity: 2, num_ms_combs: 1, mus: [0, 0, 0], ns: [1, 1, 3], ls: [0, 0, 0], ms_combs: [0, 0, 0], ctildes: [0.057248180375691245, -0.0005841645164093958]}
    - {mu0: 0, rank: 3, ndensity: 2, num_ms_combs: 2, mus: [0, 0, 0], ns: [1, 1, 3], ls: [0, 1, 1], ms_combs: [0, 0, 0, 0, 1, -1], ctildes: [0.025373688900521666, 0.0022886139108913746, -0.050747377801043318, -0.0045772278217827483]}
    - {mu0: 0, rank: 3, ndensity: 2, num_ms_combs: 2, mus: [0, 0, 0], ns: [1, 1, 3], ls: [1, 1, 0], ms_combs: [0, 0, 0, 1, -1, 0], ctildes: [0.0011031767494715651, 0.01498413721021454, -0.0022063534989431297, -0.029968274420429073]}
    - {mu0: 0, rank: 3, ndensity: 2, num_ms_combs: 1, mus: [0, 0, 0], ns: [1, 1, 4], ls: [0, 0, 0], ms_combs: [0, 0, 0], ctildes: [-0.0029510217512454659, 0.00082092722675486981]}
    - {mu0: 0, rank: 3, ndensity: 2, num_ms_combs: 2, mus: [0, 0, 0], ns: [1, 1, 4], ls: [0, 1, 1], ms_combs: [0, 0, 0, 0, 1, -1], ctildes: [0.0020681993623209885, 0.016618865720080096, -0.0041363987246419761, -0.033237731440160186]}
    - {mu0: 0, rank: 3, ndensity: 2, num_ms_combs: 2, mus: [0, 0, 0], ns: [1, 1, 4], ls: [1, 1, 0], ms_combs: [0, 0, 0, 1, -1, 0], ctildes: [0.01377613926233357, 0.0029378021440273332, -0.027552278524667132, -0.0058756042880546656]}
    - {mu0: 0, rank: 3, ndensity: 2, num_ms_combs: 1, mus: [0, 0, 0], ns: [1, 2, 2], ls: [0, 0, 0], ms_combs: [0, 0, 0], ctildes: [-0.0088348328126030273, -0.00578579997546241]}
    - {mu0: 0, rank: 3, ndensity: 2, num_ms_combs: 2, mus: [0, 0, 0], ns: [1, 2, 2], ls: [0, 1, 1], ms_combs: [0, 0, 0, 0, 1, -1], ctildes: [0.007202871713435431, -0.0038753722881585666, -0.014405743426870858, 0.0077507445763171316]}
    - {mu0: 0, rank: 3, ndensity: 2, num_ms_combs: 2, mus: [0, 0, 0], ns: [1, 2, 2], ls: [1, 0, 1], ms_combs: [0, 0, 0, 1, 0, -1], ctildes: [0.012384559894442211, 0.011756366828577676, -0.024769119788884419, -0.023512733657155348]}
    - {mu0: 0, rank: 3, ndensity: 2, num_ms_combs: 1, mus: [0, 0, 0], ns: [1, 2, 3], ls: [0, 0, 0], ms_combs: [0, 0, 0], ctildes: [0.020237868970904203, -0.017729823350326808]}
    - {mu0: 0, rank: 3, ndensity: 2, num_ms_combs: 2, mus: [0, 0, 0], ns: [1, 2, 3], ls: [0, 1, 1], ms_combs: [0, 0, 0, 0, 1, -1], ctildes: [-0.0077429930029750604, 0.0064387967146168519, 0.015485986005950119, -0.012877593429233702]}
    - {mu0: 0, rank: 3, ndensity: 2, num_ms_combs: 2, mus: [0, 0, 0], ns: [1, 2, 3], ls: [1, 0, 1], ms_combs: [0, 0, 0, 1, 0, -1], ctildes: [-0.0078203664956986822, -0.030799089884538708, 0.015640732991397361, 0.061598179769077409]}
    - {mu0: 0, rank: 3, ndensity: 2, num_ms_combs: 2, mus: [0, 0, 0], ns: [1, 2, 3], ls: [1, 1, 0], ms_combs: [0, 0, 0, 1, -1, 0], ctildes: [-0.013673101599707993, -0.0020718398640473209, 0.02734620319941598, 0.0041436797280946409]}
    - {mu0: 0, rank: 3, ndensity: 2, num_ms_combs: 1, mus: [0, 0, 0], ns: [1, 2, 4], ls: [0, 0, 0], ms_combs: [0, 0, 0], ctildes: [-0.0061410400713637885, -0.017614058619612235]}
    - {mu0: 0, rank: 3, ndensity: 2, num_ms_combs: 1, mus: [0, 0, 0], ns: [1, 3, 3], ls: [0, 0, 0], ms_combs: [0, 0, 0], ctildes: [0.0090234249484288289, 0.014654531664589835]}
    - {mu0: 0, rank: 3, ndensity: 2, num_ms_combs: 1, mus: [0, 0, 0], ns: [1, 3, 4], ls: [0, 0, 0], ms_combs: [0, 0, 0], ctildes: [-0.022890873232243151, 0.015991255677707192]}
    - {mu0: 0, rank: 3, ndensity: 2, num_ms_combs: 1, mus: [0, 0, 0], ns: [2, 2, 2], ls: [0, 0, 0], ms_combs: [0, 0, 0], ctildes: [-0.0087363165744513312, 0.029282410896825248]}
    - {mu0: 0, rank: 3, ndensity: 2, num_ms_combs: 2, mus: [0, 0, 0], ns: [2, 2, 2], ls: [0, 1, 1], ms_combs: [0, 0, 0, 0, 1, -1], ctildes: [-0.0012691952408003932, 0.0034269759413422399, 0.0025383904816007859, -0.0068539518826844789]}
    - {mu0: 0, rank: 3, ndensity: 2, num_ms_combs: 1, mus: [0, 0, 0], ns: [2, 2, 3], ls: [0, 0, 0], ms_combs: [0, 0, 0], ctildes: [-0.0095272193702389783, -0.019717418697153984]}
    - {mu0: 0, rank: 3, ndensity: 2, num_ms_combs: 1, mus: [0, 0, 0], ns: [2, 2, 4], ls: [0, 0, 0], ms_combs: [0, 0, 0], ctildes: [0.016531049037835852, 0.010052356616801265]}
    - {mu0: 0, rank: 3, ndensity: 2, num_ms_combs: 1, mus: [0, 0, 0], ns: [2, 3, 3], ls: [0, 0, 0], ms_combs: [0, 0, 0], ctildes: [0.0090738233122499654, 0.012969172082964336]}
    - {mu0: 0, rank: 3, ndensity: 2, num_ms_combs: 1, mus: [0, 0, 1], ns: [1, 1, 1], ls: [0, 0, 0], ms_combs: [0, 0, 0], ctildes: [0.12626482016420484, 0.022378816298344973]}
    - {mu0: 0, rank: 3, ndensity: 2, num_ms_combs: 2, mus: [0, 0, 1], ns: [1, 1, 1], ls: [0, 1, 1], ms_combs: [0, 0, 0, 0, 1, -1], ctildes: [0.012599904999781907, 0.051766457337666084, -0.02519980999956381, -0.10353291467533215]}
    - {mu0: 0, rank: 3, ndensity: 2, num_ms_combs: 2, mus: [0, 0, 1], ns: [1, 1, 1], ls: [1, 1, 0], ms_combs: [0, 0, 0, 1, -1, 0], ctildes: [-0.0034831223007956024, 0.0083902929281347658, 0.006966244601591203, -0.016780585856269528]}
    - {mu0: 0, rank: 3, ndensity: 2, num_ms_combs: 1, mus: [0, 0, 1], ns: [1, 1, 2], ls: [0, 0, 0], ms_combs: [0, 0, 0], ctildes: [0.011791556361347532, -0.020844040281650617]}
    - {mu0: 0, rank: 3, ndensity: 2, num_ms_combs: 2, mus: [0, 0, 1], ns: [1, 1, 2], ls: [0, 1, 1], ms_combs: [0, 0, 0, 0, 1, -1], ctildes: [0.021614553441519781, 0.0046133708836263165, -0.043229106883039548, -0.0092267417672526313]}
    - {mu0: 0, rank: 3, ndensity: 2, num_ms_combs: 2, mus: [0, 0, 1], ns: [1, 1, 2], ls: [1, 1, 0], ms_combs: [0, 0, 0, 1, -1, 0], ctildes: [0.0075243068861803736, 0.0042591064799292538, -0.015048613772360744, -0.0085182129598585076]}
    - {mu0: 0, rank: 3, ndensity: 2, num_ms_combs: 1, mus: [0, 0, 1], ns: [1, 1, 3], ls: [0, 0, 0], ms_combs: [0, 0, 0], ctildes: [0.088032727782608122, 0.049642337701671813]}
    - {mu0: 0, rank: 3, ndensity: 2, num_ms_combs: 1, mus: [0, 0, 1], ns: [1, 2, 1], ls: [0, 0, 0], ms_combs: [0, 0, 0], ctildes: [0.069218647419472382, 0.00063261621364284963]}
    - {mu0: 0, rank: 3, ndensity: 2, num_ms_combs: 2, mus: [0, 0, 1], ns: [1, 2, 1], ls: [0, 1, 1], ms_combs: [0, 0, 0, 0, 1, -1], ctildes: [0.0056327438604556962, -0.0033553926927547746, -0.011265487720911391, 0.0067107853855095474]}
    - {mu0: 0, rank: 3, ndensity: 2, num_ms_combs: 2, mus: [0, 0, 1], ns: [1, 2, 1], ls: [1, 0, 1], ms_combs: [0, 0, 0, 1, 0, -1], ctildes: [0.023541001220694181, 0.0434622666692112, -0.047082002441388354, -0.086924533338422386]}
    - {mu0: 0, rank: 3, ndensity: 2, num_ms_combs: 2, mus: [0, 0, 1], ns: [1, 2, 1], ls: [1, 1, 0], ms_combs: [0, 0, 0, 1, -1, 0], ctildes: [0.022973566437007216, -0.0077707975660644473, -0.045947132874014425, 0.015541595132128891]}
    - {mu0: 0, rank: 3, ndensity: 2, num_ms_combs: 1, mus: [0, 0, 1], ns: [1, 2, 2], ls: [0, 0, 0], ms_combs: [0, 0, 0], ctildes: [0.0089902115885953787, 0.006007744810195996]}
    - {mu0: 0, rank: 3, ndensity: 2, num_ms_combs: 1, mus: [0, 0, 1], ns: [1, 2, 3], ls: [0, 0, 0], ms_combs: [0, 0, 0], ctildes: [-0.013400263540335132, -0.0026226910110955549]}
    - {mu0: 0, rank: 3, ndensity: 2, num_ms_combs: 1, mus: [0, 0, 1], ns: [1, 3, 1], ls: [0, 0, 0], ms_combs: [0, 0, 0], ctildes: [0.037034960454942353, 0.049559107491851315]}
    - {mu0: 0, rank: 3, ndensity: 2, num_ms_combs: 1, mus: [0, 0, 1], ns: [1, 3, 2], ls: [0, 0, 0], ms_combs: [0, 0, 0], ctildes: [-0.033848409372564121, 0.017536550480958916]}
    - {mu0: 0, rank: 3, ndensity: 2, num_ms_combs: 1, mus: [0, 0, 1], ns: [2, 2, 1], ls: [0, 0, 0], ms_combs: [0, 0, 0], ctildes: [0.048399205283875431, -0.0064244464213824605]}
    - {mu0: 0, rank: 3, ndensity: 2, num_ms_combs: 1, mus: [0, 0, 1], ns: [2, 2, 2], ls: [0, 0, 0], ms_combs: [0, 0, 0], ctildes: [-0.015766065370775059, 0.027959875064437489]}
    - {mu0: 0, rank: 3, ndensity: 2, num_ms_combs: 1, mus: [0, 0, 1], ns: [2, 3, 1], ls: [0, 0, 0], ms_combs: [0, 0, 0], ctildes: [0.004541878102895182, 0.013312218015143614]}
    - {mu0: 0, rank: 3, ndensity: 2, num_ms_combs: 1, mus: [0, 0, 2], ns: [1, 1, 1], ls: [0, 0, 0], ms_combs: [0, 0, 0], ctildes: [0.033434487129354561, 0.0056990408215125835]}
    - {mu0: 0, rank: 3, ndensity: 2, num_ms_combs: 2, mus: [0, 0, 2], ns: [1, 1, 1], ls: [0, 1, 1], ms_combs: [0, 0, 0, 0, 1, -1], ctildes: [-0.013037466532585872, -0.021450110148537559, 0.026074933065171741, 0.04290022029707511]}
    - {mu0: 0, rank: 3, ndensity: 2, num_ms_combs: 2, mus: [0, 0, 2], ns: [1, 1, 1], ls: [1, 1, 0], ms_combs: [0, 0, 0, 1, -1, 0], ctildes: [-0.0030800568867843203, 0.015977571873904594, 0.0061601137735686389, -0.031955143747809181]}
    - {mu0: 0, rank: 3, ndensity: 2, num_ms_combs: 1, mus: [0, 0, 2], ns: [1, 1, 2], ls: [0, 0, 0], ms_combs: [0, 0, 0], ctildes: [0.042909332660957186, 0.0076376308701110911]}
    - {mu0: 0, rank: 3, ndensity: 2, num_ms_combs: 2, mus: [0, 0, 2], ns: [1, 1, 2], ls: [0, 1, 1], ms_combs: [0, 0, 0, 0, 1, -1], ctildes: [-0.0083056153744816251, -0.015793989555885124, 0.016611230748963247, 0.031587979111770241]}
    - {mu0: 0, rank: 3, ndensity: 2, num_ms_combs: 2, mus: [0, 0, 2], ns: [1, 1, 2], ls: [1, 1, 0], ms_combs: [0, 0, 0, 1, -1, 0], ctildes: [-0.00036676475610720078, 0.027445831896969711, 0.00073352951221440134, -0.054891663793939414]}
    - {mu0: 0, rank: 3, ndensity: 2, num_ms_combs: 1, mus: [0, 0, 2], ns: [1, 1, 3], ls: [0, 0, 0], ms_combs: [0, 0, 0], ctildes: [0.007189091163718327, 0.046172641459754644]}
    - {mu0: 0, rank: 3, ndensity: 2, num_ms_combs: 1, mus: [0, 0, 2], ns: [1, 2, 1], ls: [0, 0, 0], ms_combs: [0, 0, 0], ctildes: [-0.024054935548397372, 0.0049956591884846822]}
    - {mu0: 0, rank: 3, ndensity: 2, num_ms_combs: 2, mus: [0, 0, 2], ns: [1, 2, 1], ls: [0, 1, 1], ms_combs: [0, 0, 0, 0, 1, -1], ctildes: [-0.019860538972047887, -0.012962449090856948, 0.039721077944095767, 0.025924898181713892]}
    - {mu0: 0, rank: 3, ndensity: 2, num_ms_combs: 2, mus: [0, 0, 2], ns: [1, 2, 1], ls: [1, 0, 1], ms_combs: [0, 0, 0, 1, 0, -1], ctildes: [0.021619720413628703, -0.011470112637492279, -0.043239440827257399, 0.022940225274984551]}
    - {mu0: 0, rank: 3, ndensity: 2, num_ms_combs: 2, mus: [0, 0, 2], ns: [1, 2, 1], ls: [1, 1, 0], ms_combs: [0, 0, 0, 1, -1, 0], ctildes: [0.037914282578781544, 0.0095499387738959222, -0.07582856515756306, -0.019099877547791841]}
    - {mu0: 0, rank: 3, ndensity: 2, num_ms_combs: 1, mus: [0, 0, 2], ns: [1, 2, 2], ls: [0, 0, 0], ms_combs: [0, 0, 0], ctildes: [-0.010271361788133133, -0.06187462919576845]}
    - {mu0: 0, rank: 3, ndensity: 2, num_ms_combs: 1, mus: [0, 0, 2], ns: [1, 2, 3], ls: [0, 0, 0], ms_combs: [0, 0, 0], ctildes: [-0.051472510447926396, -0.0049349958876183063]}
    - {mu0: 0, rank: 3, ndensity: 2, num_ms_combs: 1, mus: [0, 0, 2], ns: [1, 3, 1], ls: [0, 0, 0], ms_combs: [0, 0, 0], ctildes: [0.05021836901345577, 0.037116248979506418]}
    - {mu0: 0, rank: 3, ndensity: 2, num_ms_combs: 1, mus: [0, 0, 2], ns: [1, 3, 2], ls: [0, 0, 0], ms_combs: [0, 0, 0], ctildes: [0.051797157944515962, 0.021429627977534255]}
    - {mu0: 0, rank: 3, ndensity: 2, num_ms_combs: 1, mus: [0, 0, 2], ns: [2, 2, 1], ls: [0, 0, 0], ms_combs: [0, 0, 0], ctildes: [-0.028564177093818383, 0.051043760215042776]}
    - {mu0: 0, rank: 3, ndensity: 2, num_ms_combs: 1, mus: [0, 0, 2], ns: [2, 2, 2], ls: [0, 0, 0], ms_combs: [0, 0, 0], ctildes: [-0.010146689179373301, -0.061447313794312737]}
    - {mu0: 0, rank: 3, ndensity: 2, num_ms_combs: 1, mus: [0, 0, 2], ns: [2, 3, 1], ls: [0, 0, 0], ms_combs: [0, 0, 0], ctildes: [-0.017324693198068484, 0.002963084986032153]}
    - {mu0: 0, rank: 3, ndensity: 2, num_ms_combs: 1, mus: [0, 1, 1], ns: [1, 1, 1], ls: [0, 0, 0], ms_combs: [0, 0, 0], ctildes: [0.12061307354778562, 0.051312093100269317]}
    - {mu0: 0, rank: 3, ndensity: 2, num_ms_combs: 2, mus: [0, 1, 1], ns: [1, 1, 1], ls: [0, 1, 1], ms_combs: [0, 0, 0, 0, 1, -1], ctildes: [0.04299973187506255, 0.039551306409300289, -0.085999463750125085, -0.079102612818600551]}
    - {mu0: 0, rank: 3, ndensity: 2, num_ms_combs: 2, mus: [0, 1, 1], ns: [1, 1, 1], ls: [1, 0, 1], ms_combs: [0, 0, 0, 1, 0, -1], ctildes: [-0.01066029179740707, 0.024664774267363649, 0.021320583594814133, -0.049329548534727291]}
    - {mu0: 0, rank: 3, ndensity: 2, num_ms_combs: 1, mus: [0, 1, 1], ns: [1, 1, 2], ls: [0, 0, 0], ms_combs: [0, 0, 0], ctildes: [0.037946401718273695, 0.0090806064624686603]}
    - {mu0: 0, rank: 3, ndensity: 2, num_ms_combs: 2, mus: [0, 1, 1], ns: [1, 1, 2], ls: [0, 1, 1], ms_combs: [0, 0, 0, 0, 1, -1], ctildes: [0.015631154481596188, 0.021522573896259178, -0.031262308963192369, -0.043045147792518348]}
    - {mu0: 0, rank: 3, ndensity: 2, num_ms_combs: 2, mus: [0, 1, 1], ns: [1, 1, 2], ls: [1, 0, 1], ms_combs: [0, 0, 0, 1, 0, -1], ctildes: [0.011644344656893169, 0.006455863340779926, -0.023288689313786335, -0.01291172668155985]}
    - {mu0: 0, rank: 3, ndensity: 2, num_ms_combs: 1, mus: [0, 1, 1], ns: [1, 1, 3], ls: [0, 0, 0], ms_combs: [0, 0, 0], ctildes: [0.079583097363643246, 0.027529408559924348]}
    - {mu0: 0, rank: 3, ndensity: 2, num_ms_combs: 1, mus: [0, 1, 1], ns: [1, 2, 2], ls: [0, 0, 0], ms_combs: [0, 0, 0], ctildes: [-0.011216847195064387, -0.01160609070278675]}
    - {mu0: 0, rank: 3, ndensity: 2, num_ms_combs: 1, mus: [0, 1, 1], ns: [2, 1, 1], ls: [0, 0, 0], ms_combs: [0, 0, 0], ctildes: [0.038231347241583162, 0.0059196448598741094]}
    - {mu0: 0, rank: 3, ndensity: 2, num_ms_combs: 1, mus: [0, 1, 1], ns: [2, 1, 2], ls: [0, 0, 0], ms_combs: [0, 0, 0], ctildes: [-0.01185403757686123, 0.0081758446072357892]}
    - {mu0: 0, rank: 3, ndensity: 2, num_ms_combs: 1, mus: [0, 1, 1], ns: [3, 1, 1], ls: [0, 0, 0], ms_combs: [0, 0, 0], ctildes: [0.068421578351669426, 0.029628221623595991]}
    - {mu0: 0, rank: 3, ndensity: 2, num_ms_combs: 1, mus: [0, 1, 2], ns: [1, 1, 1], ls: [0, 0, 0], ms_combs: [0, 0, 0], ctildes: [0.15730993283009939, 0.022678178467463991]}
    - {mu0: 0, rank: 3, ndensity: 2, num_ms_combs: 2, mus: [0, 1, 2], ns: [1, 1, 1], ls: [0, 1, 1], ms_combs: [0, 0, 0, 0, 1, -1], ctildes: [0.0034898496754384501, -0.017328423920304079, -0.0069796993508768994, 0.03465684784060815]}
    - {mu0: 0, rank: 3, ndensity: 2, num_ms_combs: 2, mus: [0, 1, 2], ns: [1, 1, 1], ls: [1, 0, 1], ms_combs: [0, 0, 0, 1, 0, -1], ctildes: [0.011665173323182331, -0.017564778433439981, -0.023330346646364658, 0.035129556866879956]}
    - {mu0: 0, rank: 3, ndensity: 2, num_ms_combs: 2, mus: [0, 1, 2], ns: [1, 1, 1], ls: [1, 1, 0], ms_combs: [0, 0, 0, 1, -1, 0], ctildes: [0.018154936784702175, 0.085892223735137732, -0.036309873569404343, -0.17178444747027541]}
    - {mu0: 0, rank: 3, ndensity: 2, num_ms_combs: 1, mus: [0, 1, 2], ns: [1, 1, 2], ls: [0, 0, 0], ms_combs: [0, 0, 0], ctildes: [0.17466431112116954, 0.016304826921918182]}
    - {mu0: 0, rank: 3, ndensity: 2, num_ms_combs: 2, mus: [0, 1, 2], ns: [1, 1, 2], ls: [0, 1, 1], ms_combs: [0, 0, 0, 0, 1, -1], ctildes: [-0.01381625574368224, 0.0097718195541742509, 0.027632511487364477, -0.019543639108348498]}
    - {mu0: 0, rank: 3, ndensity: 2, num_ms_combs: 2, mus: [0, 1, 2], ns: [1, 1, 2], ls: [1, 0, 1], ms_combs: [0, 0, 0, 1, 0, -1], ctildes: [-0.032692716228674382, 0.010908909802751072, 0.065385432457348749, -0.02181781960550214]}
    - {mu0: 0, rank: 3, ndensity: 2, num_ms_combs: 2, mus: [0, 1, 2], ns: [1, 1, 2], ls: [1, 1, 0], ms_combs: [0, 0, 0, 1, -1, 0], ctildes: [0.022254437706822328, 0.076105686638033077, -0.04450887541364465, -0.15221137327606613]}
    - {mu0: 0, rank: 3, ndensity: 2, num_ms_combs: 1, mus: [0, 1, 2], ns: [1, 1, 3], ls: [0, 0, 0], ms_combs: [0, 0, 0], ctildes: [-0.013789383651418708, 0.029621596150587633]}
    - {mu0: 0, rank: 3, ndensity: 2, num_ms_combs: 1, mus: [0, 1, 2], ns: [1, 2, 1], ls: [0, 0, 0], ms_combs: [0, 0, 0], ctildes: [-0.032208110842102809, -0.04067987282485426]}
    - {mu0: 0, rank: 3, ndensity: 2, num_ms_combs: 2, mus: [0, 1, 2], ns: [1, 2, 1], ls: [0, 1, 1], ms_combs: [0, 0, 0, 0, 1, -1], ctildes: [-0.0001069198317447158, -0.019546490350911324, 0.00021383966348943154, 0.039092980701822641]}
    - {mu0: 0, rank: 3, ndensity: 2, num_ms_combs: 2, mus: [0, 1, 2], ns: [1, 2, 1], ls: [1, 0, 1], ms_combs: [0, 0, 0, 1, 0, -1], ctildes: [-0.0082618314971518673, -0.023708261035133574, 0.016523662994303731, 0.047416522070267142]}
    - {mu0: 0, rank: 3, ndensity: 2, num_ms_combs: 2, mus: [0, 1, 2], ns: [1, 2, 1], ls: [1, 1, 0], ms_combs: [0, 0, 0, 1, -1, 0], ctildes: [0.034964579534895138, 0.0079182452509176104, -0.069929159069790262, -0.015836490501835217]}
    - {mu0: 0, rank: 3, ndensity: 2, num_ms_combs: 1, mus: [0, 1, 2], ns: [1, 2, 2], ls: [0, 0, 0], ms_combs: [0, 0, 0], ctildes: [0.059700194634868961, -0.034296885807833639]}
    - {mu0: 0, rank: 3, ndensity: 2, num_ms_combs: 1, mus: [0, 1, 2], ns: [1, 2, 3], ls: [0, 0, 0], ms_combs: [0, 0, 0], ctildes: [-0.047221057195634651, 0.022220985923359093]}
    - {mu0: 0, rank: 3, ndensity: 2, num_ms_combs: 1, mus: [0, 1, 2], ns: [1, 3, 1], ls: [0, 0, 0], ms_combs: [0, 0, 0], ctildes: [0.050196635327280102, 0.021055728597492156]}
    - {mu0: 0, rank: 3, ndensity: 2, num_ms_combs: 1, mus: [0, 1, 2], ns: [1, 3, 2], ls: [0, 0, 0], ms_combs: [0, 0, 0], ctildes: [0.039914754910502087, -0.0057023861338159855]}
    - {mu0: 0, rank: 3, ndensity: 2, num_ms_combs: 1, mus: [0, 1, 2], ns: [2, 1, 1], ls: [0, 0, 0], ms_combs: [0, 0, 0], ctildes: [0.024090016470381774, -0.02541484617097501]}
    - {mu0: 0, rank: 3, ndensity: 2, num_ms_combs: 2, mus: [0, 1, 2], ns: [2, 1, 1], ls: [0, 1, 1], ms_combs: [0, 0, 0, 0, 1, -1], ctildes: [-0.00024947141074637596, -0.015110937420178336, 0.0004989428214927518, 0.030221874840356669]}
    - {mu0: 0, rank: 3, ndensity: 2, num_ms_combs: 2, mus: [0, 1, 2], ns: [2, 1, 1], ls: [1, 0, 1], ms_combs: [0, 0, 0, 1, 0, -1], ctildes: [0.0086762102804550465, -0.012456380577250899, -0.01735242056091009, 0.024912761154501792]}
    - {mu0: 0, rank: 3, ndensity: 2, num_ms_combs: 2, mus: [0, 1, 2], ns: [2, 1, 1], ls: [1, 1, 0], ms_combs: [0, 0, 0, 1, -1, 0], ctildes: [0.068495611436733592, 0.014475064103727816, -0.13699122287346716, -0.028950128207455628]}
    - {mu0: 0, rank: 3, ndensity: 2, num_ms_combs: 1, mus: [0, 1, 2], ns: [2, 1, 2], ls: [0, 0, 0], ms_combs: [0, 0, 0], ctildes: [0.068659878438053726, -0.06247815988349073]}
    - {mu0: 0, rank: 3, ndensity: 2, num_ms_combs: 1, mus: [0, 1, 2], ns: [2, 1, 3], ls: [0, 0, 0], ms_combs: [0, 0, 0], ctildes: [-0.026943181152298181, 0.018790661485269634]}
    - {mu0: 0, rank: 3, ndensity: 2, num_ms_combs: 1, mus: [0, 1, 2], ns: [2, 2, 1], ls: [0, 0, 0], ms_combs: [0, 0, 0], ctildes: [-0.069368056365114769, 0.015887034338585248]}
    - {mu0: 0, rank: 3, ndensity: 2, num_ms_combs: 1, mus: [0, 1, 2], ns: [2, 2, 2], ls: [0, 0, 0], ms_combs: [0, 0, 0], ctildes: [0.00057679676953927299, -0.046692270151425339]}
    - {mu0: 0, rank: 3, ndensity: 2, num_ms_combs: 1, mus: [0, 1, 2], ns: [2, 3, 1], ls: [0, 0, 0], ms_combs: [0, 0, 0], ctildes: [-0.045146843959889223, 0.021868316305843575]}
    - {mu0: 0, rank: 3, ndensity: 2, num_ms_combs: 1, mus: [0, 1, 2], ns: [3, 1, 1], ls: [0, 0, 0], ms_combs: [0, 0, 0], ctildes: [0.021732793221341241, 0.025090710686395089]}
    - {mu0: 0, rank: 3, ndensity: 2, num_ms_combs: 1, mus: [0, 1, 2], ns: [3, 1, 2], ls: [0, 0, 0], ms_combs: [0, 0, 0], ctildes: [0.031584382214304159, 0.018539419255433492]}
    - {mu0: 0, rank: 3, ndensity: 2, num_ms_combs: 1, mus: [0, 1, 2], ns: [3, 2, 1], ls: [0, 0, 0], ms_combs: [0, 0, 0], ctildes: [-0.044232922452613226, 0.012970209304335716]}
    - {mu0: 0, rank: 3, ndensity: 2, num_ms_combs: 1, mus: [0, 2, 2], ns: [1, 1, 1], ls: [0, 0, 0], ms_combs: [0, 0, 0], ctildes: [-0.041001556842785551, -0.029068198565737089]}
    - {mu0: 0, rank: 3, ndensity: 2, num_ms_combs: 2, mus: [0, 2, 2], ns: [1, 1, 1], ls: [0, 1, 1], ms_combs: [0, 0, 0, 0, 1, -1], ctildes: [0.040149676160546537, -0.0018228043386818874, -0.080299352321093059, 0.0036456086773637743]}
    - {mu0: 0, rank: 3, ndensity: 2, num_ms_combs: 2, mus: [0, 2, 2], ns: [1, 1, 1], ls: [1, 0, 1], ms_combs: [0, 0, 0, 1, 0, -1], ctildes: [0.02884122490477262, -0.027364500550419519, -0.057682449809545226, 0.054729001100839031]}
    - {mu0: 0, rank: 3, ndensity: 2, num_ms_combs: 1, mus: [0, 2, 2], ns: [1, 1, 2], ls: [0, 0, 0], ms_combs: [0, 0, 0], ctildes: [0.11228806218109547, -0.0085415028649509332]}
    - {mu0: 0, rank: 3, ndensity: 2, num_ms_combs: 2, mus: [0, 2, 2], ns: [1, 1, 2], ls: [0, 1, 1], ms_combs: [0, 0, 0, 0, 1, -1], ctildes: [0.10260930585880122, -0.0059552009350146819, -0.20521861171760242, 0.011910401870029362]}
    - {mu0: 0, rank: 3, ndensity: 2, num_ms_combs: 2, mus: [0, 2, 2], ns: [1, 1, 2], ls: [1, 0, 1], ms_combs: [0, 0, 0, 1, 0, -1], ctildes: [-0.024300673403434864, 0.0060228517820241365, 0.048601346806869714, -0.012045703564048271]}
    - {mu0: 0, rank: 3, ndensity: 2, num_ms_combs: 1, mus: [0, 2, 2], ns: [1, 1, 3], ls: [0, 0, 0], ms_combs: [0, 0, 0], ctildes: [-0.046511633153677304, 0.0008979410818275033]}
    - {mu0: 0, rank: 3, ndensity: 2, num_ms_combs: 1, mus: [0, 2, 2], ns: [1, 2, 2], ls: [0, 0, 0], ms_combs: [0, 0, 0], ctildes: [0.0095705810408150092, 0.028068991215491734]}
    - {mu0: 0, rank: 3, ndensity: 2, num_ms_combs: 1, mus: [0, 2, 2], ns: [2, 1, 1], ls: [0, 0, 0], ms_combs: [0, 0, 0], ctildes: [-0.15733201426349602, 0.019140176370702387]}
    - {mu0: 0, rank: 3, ndensity: 2, num_ms_combs: 1, mus: [0, 2, 2], ns: [2, 1, 2], ls: [0, 0, 0], ms_combs: [0, 0, 0], ctildes: [-0.024676062497647408, -0.095491453571973903]}
    - {mu0: 0, rank: 3, ndensity: 2, num_ms_combs: 1, mus: [0, 2, 2], ns: [3, 1, 1], ls: [0, 0, 0], ms_combs: [0, 0, 0], ctildes: [-0.039439317729865024, 0.023477297886657075]}
    - {mu0: 0, rank: 3, ndensity: 2, num_ms_combs: 1, mus: [1, 1, 1], ns: [1, 1, 1], ls: [0, 0, 0], ms_combs: [0, 0, 0], ctildes: [0.072806728974584151, 0.0086760232902068322]}
    - {mu0: 0, rank: 3, ndensity: 2, num_ms_combs: 2, mus: [1, 1, 1], ns: [1, 1, 1], ls: [0, 1, 1], ms_combs: [0, 0, 0, 0, 1, -1], ctildes: [-0.010140293162726296, 0.026780130255724788, 0.020280586325452588, -0.053560260511449569]}
    - {mu0: 0, rank: 3, ndensity: 2, num_ms_combs: 1, mus: [1, 1, 1], ns: [1, 1, 2], ls: [0, 0, 0], ms_combs: [0, 0, 0], ctildes: [0.046077660443351078, -0.025020778546302004]}
    - {mu0: 0, rank: 3, ndensity: 2, num_ms_combs: 1, mus: [1, 1, 1], ns: [1, 1, 3], ls: [0, 0, 0], ms_combs: [0, 0, 0], ctildes: [0.035370378404931985, 0.036066148750566622]}
    - {mu0: 0, rank: 3, ndensity: 2, num_ms_combs: 1, mus: [1, 1, 1], ns: [1, 2, 2], ls: [0, 0, 0], ms_combs: [0, 0, 0], ctildes: [0.01847904950332456, -0.025549520430010339]}
    - {mu0: 0, rank: 3, ndensity: 2, num_ms_combs: 1, mus: [1, 1, 2], ns: [1, 1, 1], ls: [0, 0, 0], ms_combs: [0, 0, 0], ctildes: [0.053669478898616882, 0.011320767621215883]}
    - {mu0: 0, rank: 3, ndensity: 2, num_ms_combs: 2, mus: [1, 1, 2], ns: [1, 1, 1], ls: [0, 1, 1], ms_combs: [0, 0, 0, 0, 1, -1], ctildes: [0.017993814406947545, -0.014819264829780625, -0.035987628813895084, 0.029638529659561246]}
    - {mu0: 0, rank: 3, ndensity: 2, num_ms_combs: 2, mus: [1, 1, 2], ns: [1, 1, 1], ls: [1, 1, 0], ms_combs: [0, 0, 0, 1, -1, 0], ctildes: [0.021666223931489207, 0.071132892958775146, -0.043332447862978407, -0.14226578591755029]}
    - {mu0: 0, rank: 3, ndensity: 2, num_ms_combs: 1, mus: [1, 1, 2], ns: [1, 1, 2], ls: [0, 0, 0], ms_combs: [0, 0, 0], ctildes: [0.039705448505210128, 0.031726355401477599]}
    - {mu0: 0, rank: 3, ndensity: 2, num_ms_combs: 2, mus: [1, 1, 2], ns: [1, 1, 2], ls: [0, 1, 1], ms_combs: [0, 0, 0, 0, 1, -1], ctildes: [-0.006947046122188329, -0.0028131127218741464, 0.013894092244376655, 0.0056262254437482919]}
    - {mu0: 0, rank: 3, ndensity: 2, num_ms_combs: 2, mus: [1, 1, 2], ns: [1, 1, 2], ls: [1, 1, 0], ms_combs: [0, 0, 0, 1, -1, 0], ctildes: [-0.00085394440160653496, 0.051643764212820478, 0.0017078888032130695, -0.10328752842564093]}
    - {mu0: 0, rank: 3, ndensity: 2, num_ms_combs: 1, mus: [1, 1, 2], ns: [1, 1, 3], ls: [0, 0, 0], ms_combs: [0, 0, 0], ctildes: [0.016172401838115791, 0.029607547262426613]}
    - {mu0: 0, rank: 3, ndensity: 2, num_ms_combs: 1, mus: [1, 1, 2], ns: [1, 2, 1], ls: [0, 0, 0], ms_combs: [0, 0, 0], ctildes: [-0.0022995218058748951, -0.012616039545770251]}
    - {mu0: 0, rank: 3, ndensity: 2, num_ms_combs: 2, mus: [1, 1, 2], ns: [1, 2, 1], ls: [0, 1, 1], ms_combs: [0, 0, 0, 0, 1, -1], ctildes: [0.0050167975045159619, 0.012563626100646642, -0.010033595009031922, -0.025127252201293276]}
    - {mu0: 0, rank: 3, ndensity: 2, num_ms_combs: 2, mus: [1, 1, 2], ns: [1, 2, 1], ls: [1, 0, 1], ms_combs: [0, 0, 0, 1, 0, -1], ctildes: [0.015374436972318793, -0.020206608409047002, -0.030748873944637579, 0.040413216818093997]}
    - {mu0: 0, rank: 3, ndensity: 2, num_ms_combs: 2, mus: [1, 1, 2], ns: [1, 2, 1], ls: [1, 1, 0], ms_combs: [0, 0, 0, 1, -1, 0], ctildes: [0.049627016788080548, 0.031963866180335199, -0.099254033576161083, -0.063927732360670397]}
    - {mu0: 0, rank: 3, ndensity: 2, num_ms_combs: 1, mus: [1, 1, 2], ns: [1, 2, 2], ls: [0, 0, 0], ms_combs: [0, 0, 0], ctildes: [-0.013085734828824932, -0.018111296894761909]}
    - {mu0: 0, rank: 3, ndensity: 2, num_ms_combs: 1, mus: [1, 1, 2], ns: [1, 2, 3], ls: [0, 0, 0], ms_combs: [0, 0, 0], ctildes: [-0.020617019729477746, -0.022906174076555433]}
    - {mu0: 0, rank: 3, ndensity: 2, num_ms_combs: 1, mus: [1, 1, 2], ns: [1, 3, 1], ls: [0, 0, 0], ms_combs: [0, 0, 0], ctildes: [0.096748520110200756, 0.060449172621468726]}
    - {mu0: 0, rank: 3, ndensity: 2, num_ms_combs: 1, mus: [1, 1, 2], ns: [1, 3, 2], ls: [0, 0, 0], ms_combs: [0, 0, 0], ctildes: [0.051779760904492642, 0.025768282376764789]}
    - {mu0: 0, rank: 3, ndensity: 2, num_ms_combs: 1, mus: [1, 1, 2], ns: [2, 2, 1], ls: [0, 0, 0], ms_combs: [0, 0, 0], ctildes: [-0.0068313378383233255, 0.029926395633748423]}
    - {mu0: 0, rank: 3, ndensity: 2, num_ms_combs: 1, mus: [1, 1, 2], ns: [2, 2, 2], ls: [0, 0, 0], ms_combs: [0, 0, 0], ctildes: [0.02479522697540798, 0.011015730188851033]}
    - {mu0: 0, rank: 3, ndensity: 2, num_ms_combs: 1, mus: [1, 1, 2], ns: [2, 3, 1], ls: [0, 0, 0], ms_combs: [0, 0, 0], ctildes: [-0.1239707551432849, 0.0014052110332149303]}
    - {mu0: 0, rank: 3, ndensity: 2, num_ms_combs: 1, mus: [1, 2, 2], ns: [1, 1, 1], ls: [0, 0, 0], ms_combs: [0, 0, 0], ctildes: [0.010383341893153712, -0.011025599520134802]}
    - {mu0: 0, rank: 3, ndensity: 2, num_ms_combs: 2, mus: [1, 2, 2], ns: [1, 1, 1], ls: [0, 1, 1], ms_combs: [0, 0, 0, 0, 1, -1], ctildes: [-0.0096170909496981188, -0.0091053561497394624, 0.019234181899396234, 0.018210712299478921]}
